// This file is generated. Do not edit.
// Generated on: 18.01.2023 00:44:00

#include "tensorflow/lite/c/builtin_op_data.h"
#include "tensorflow/lite/c/common.h"
#include "tensorflow/lite/micro/kernels/micro_ops.h"
#include "tensorflow/lite/micro/compatibility.h"
#include "tensorflow/lite/micro/micro_context.h"
#if LOG_OP_INPUTS
#include "tensorflow/lite/micro/micro_invoke_log.h"
#endif

#if TF_LITE_MICRO_USE_OFFLINE_OP_USER_DATA
#include "tensorflow/lite/micro/kernels/ifx_common/offline_prepare_utils.h" 
#endif  // TF_LITE_MICRO_USE_OFFLINE_OP_USER_DATA


#if defined __GNUC__
#define ALIGN(X) __attribute__((aligned(X)))
#elif defined _MSC_VER
#define ALIGN(X) __declspec(align(X))
#elif defined __TASKING__
#define ALIGN(X) __align(X)
#endif

#if TF_LITE_MICRO_USE_OFFLINE_OP_USER_DATA
#include "tensorflow/lite/micro/kernels/ifx_cmsis_nn/add_op_data.h"
#include "tensorflow/lite/micro/kernels/ifx_cmsis_nn/conv_op_data.h"
#include "tensorflow/lite/micro/kernels/ifx_cmsis_nn/depthwise_conv_op_data.h"
#include "tensorflow/lite/micro/kernels/ifx_cmsis_nn/fully_connected_op_data.h"
#include "tensorflow/lite/micro/kernels/ifx_cmsis_nn/mul_op_data.h"
#include "tensorflow/lite/micro/kernels/ifx_cmsis_nn/pooling_op_data.h"
#include "tensorflow/lite/micro/kernels/ifx_cmsis_nn/softmax_op_data.h"
#include "tensorflow/lite/micro/kernels/ifx_cmsis_nn/svdf_op_data.h"
#endif  // TF_LITE_MICRO_USE_OFFLINE_OP_USER_DATA
namespace {


constexpr int kTensorArenaSize = 55188;
uint8_t tensor_arena[kTensorArenaSize] ALIGN(16);


template <int SZ, class T> struct TfArray {
  int sz; T elem[SZ];
};


enum used_operators_e {
  OP_CONV_2D, OP_MAX_POOL_2D, OP_MUL, OP_ADD, OP_MEAN, OP_FULLY_CONNECTED, OP_SOFTMAX,  OP_LAST
};


struct TensorInfo_t { // subset of TfLiteTensor used for initialization from constant memory
  TfLiteType type;
  void* data;
  TfLiteIntArray* dims;
  size_t bytes;
};

struct NodeInfo_t { // subset of TfLiteNode used for initialization from constant memory
  struct TfLiteIntArray* inputs;
  struct TfLiteIntArray* outputs;
  void* builtin_data;
  used_operators_e used_op_index;
  };


TfLiteContext ctx{};

// Tensor table with space for -1-th element used
// designate missing optional inputs/outputs.
TfLiteTensor tflTensorsWithMinus1[23];
     
TfLiteEvalTensor evalTensors[22];

TfLiteTensor * const tflTensors = tflTensorsWithMinus1+1;

TfLiteRegistration registrations[OP_LAST];
constexpr size_t kOpNodesCount = 10;


TfLiteNode tflNodes[kOpNodesCount];

const TfArray<4, int> tensor_dimension0 = { 4, { 1, 128, 6, 1, } };
const ALIGN(8) float tensor_data1[4] = { 
    -0.33739504218101501, 0.17368628084659576, -0.02987496554851532, 0.13987027108669281, 
};
const TfArray<1, int> tensor_dimension1 = { 1, { 4, } };
const ALIGN(8) float tensor_data2[16] = { 
    0.10886132717132568, -0.026288855820894241, 0.080655165016651154, 0.11088180541992188, 0.11406004428863525, 0.011437696404755116, -0.026461983099579811, 0.064348280429840088, 0.060341015458106995, 0.10062052309513092, 
    -0.052499189972877502, 0.013211173936724663, -0.0080988332629203796, 0.073448345065116882, -0.0073391678743064404, -0.11390410363674164, 
};
const TfArray<1, int> tensor_dimension2 = { 1, { 16, } };
const ALIGN(8) float tensor_data3[32] = { 
    -0.030543280765414238, 0.088976159691810608, 0.056019991636276245, -0.063361369073390961, 0.0052999318577349186, -0.07973172515630722, 0.041921898722648621, -0.0019064421067014337, -0.024858895689249039, -0.062417607754468918, 
    -0.022304175421595573, -0.10273925960063934, 0.0058973301202058792, 0.045629806816577911, -0.050969090312719345, 0.058602098375558853, -0.063632011413574219, -0.12873187661170959, 0.017283421009778976, 0.07150036096572876, 
    0.056677307933568954, -0.035360980778932571, -0.041685249656438828, -0.10056460648775101, 0.039404083043336868, -0.068161226809024811, 0.042698502540588379, 0.013339861296117306, -0.015232282690703869, 0.017296358942985535, 
    -0.098143100738525391, -0.083299718797206879, 
};
const TfArray<1, int> tensor_dimension3 = { 1, { 32, } };
const ALIGN(8) float tensor_data4[16] = { 
    0.0045708944089710712, -0.05622539296746254, 0.016376515850424767, 0.082962393760681152, 0.0080369347706437111, 0.032910976558923721, 0.01216418668627739, 0.054559521377086639, 0.1120610237121582, 0.00043348423787392676, 
    0.019113359972834587, 0.0056272759102284908, -9.6064984973054379e-05, 0.091367632150650024, 0.10998598486185074, 0.018933691084384918, 
};
const TfArray<1, int> tensor_dimension4 = { 1, { 16, } };
const ALIGN(8) int32_t tensor_data5[2] = { 
    1, 2, 
};
const TfArray<1, int> tensor_dimension5 = { 1, { 2, } };
const ALIGN(8) float tensor_data6[16] = { 
    17.082157135009766, 34.919246673583984, 20.689477920532227, 24.879358291625977, 27.217851638793945, 20.871383666992188, 25.128326416015625, 20.389780044555664, 23.15809440612793, 22.471769332885742, 
    26.198366165161133, 21.554889678955078, 19.330780029296875, 19.356235504150391, 23.891378402709961, 27.619089126586914, 
};
const TfArray<1, int> tensor_dimension6 = { 1, { 16, } };
const ALIGN(8) float tensor_data7[16] = { 
    -1.5814098119735718, -0.65726470947265625, -1.6387103796005249, -2.3403596878051758, -0.88480764627456665, -2.1526687145233154, -1.4483654499053955, -2.527714729309082, -3.7025671005249023, -0.68017882108688354, 
    -1.4669015407562256, -0.83943575620651245, -0.64949327707290649, -3.187629222869873, -3.1450929641723633, -1.7556140422821045, 
};
const TfArray<1, int> tensor_dimension7 = { 1, { 16, } };
const ALIGN(8) float tensor_data8[16*32] = { 
  0.45065432786941528, 0.4897034764289856, 0.059635013341903687, 0.49518793821334839, -0.58736801147460938, -0.14857041835784912, -0.035121496766805649, 0.13060268759727478, 0.44388088583946228, 0.62662220001220703, -0.051884278655052185, -0.25948962569236755, 0.55669122934341431, -0.13972251117229462, 0.071313247084617615, -0.45346620678901672, 0.45487785339355469, 0.38674607872962952, -0.34688043594360352, -0.16966968774795532, 0.10830171406269073, -0.0036342160310596228, -0.085324317216873169, 0.074817143380641937, 0.15055738389492035, 0.0094710569828748703, 0.18563911318778992, -0.079225920140743256, 0.022556409239768982, 0.2229800820350647, -0.24723483622074127, -0.033181417733430862, 
  -0.11500432342290878, -0.46717700362205505, -0.32982552051544189, 0.23826532065868378, 0.13130216300487518, 0.040100127458572388, 0.40575048327445984, -0.39115303754806519, -0.30440986156463623, -0.17756624519824982, 0.36672577261924744, 0.26984164118766785, -0.050161726772785187, -0.11319652944803238, 0.51031601428985596, -0.16284200549125671, 0.56290847063064575, 0.117945596575737, 0.22591383755207062, -0.21588751673698425, -0.057620912790298462, 0.45273476839065552, -0.013454143889248371, -0.011322822421789169, 0.0022081430070102215, 0.28955525159835815, 0.17606183886528015, 0.46514794230461121, 0.17135080695152283, 0.1592651754617691, 0.095237255096435547, 0.32047352194786072, 
  -0.069849275052547455, -0.0006402973085641861, 0.079926066100597382, -0.11679095774888992, 0.52151983976364136, 0.20070171356201172, 0.024206601083278656, 0.037661999464035034, 0.17580027878284454, -0.34849882125854492, -0.22271342575550079, -0.18939980864524841, -0.36761915683746338, 0.22122791409492493, -0.073473013937473297, 0.38988611102104187, 0.068535424768924713, -0.38239279389381409, 0.67515385150909424, -0.15680359303951263, -0.0053730527870357037, 0.080803535878658295, -0.034491460770368576, -0.32088729739189148, 0.32973605394363403, 0.26304015517234802, 0.21791648864746094, 0.55714547634124756, 0.082036606967449188, -0.0045331926085054874, -0.002874898724257946, -0.31302753090858459, 
  0.40186604857444763, -0.047132045030593872, 0.46430814266204834, 0.12950129806995392, 0.15161837637424469, 0.17820647358894348, 0.27178889513015747, 0.21296671032905579, 0.45744180679321289, 0.27016142010688782, -0.56384134292602539, -0.16007161140441895, -0.095159962773323059, 0.24561527371406555, -0.68749821186065674, 0.35369962453842163, 0.36034855246543884, -0.0050547909922897816, -0.039968688040971756, 0.23020380735397339, 0.36249050498008728, -0.48134341835975647, -0.43488860130310059, 0.17151212692260742, 0.21638552844524384, -0.1461508721113205, 0.17287471890449524, 0.0027190526016056538, -0.072588890790939331, -0.02219456247985363, -0.64072012901306152, -0.45141449570655823, 
  0.18633989989757538, 0.25576552748680115, 0.30108034610748291, -0.11994240432977676, -0.2186320424079895, -0.18356873095035553, -0.026868401095271111, 0.27319782972335815, 0.083988353610038757, -0.25601738691329956, -0.75830811262130737, -0.23637057840824127, 0.25730821490287781, 0.12551504373550415, -0.52235054969787598, -0.15163925290107727, -0.45095819234848022, 0.15307712554931641, -0.0062018376775085926, 0.55274134874343872, -0.0397750623524189, -0.47779840230941772, 0.11131315678358078, -0.069612793624401093, 0.13609951734542847, -0.015350311994552612, 0.2160283625125885, -0.62859874963760376, 0.3538515567779541, -0.054535031318664551, -0.26277104020118713, -0.21467854082584381, 
  0.058944862335920334, 0.010572982020676136, 0.32259431481361389, 0.017686054110527039, 0.27117025852203369, -0.43686327338218689, -0.31895345449447632, 0.42692625522613525, 0.037072908133268356, 0.15856967866420746, 0.37726560235023499, 0.35860404372215271, 0.051184117794036865, 0.49066898226737976, -0.0052568875253200531, -0.22481663525104523, -0.21657706797122955, 0.46252331137657166, -0.36172923445701599, 0.23773998022079468, -0.05460318922996521, -0.325518399477005, 0.3545021116733551, 0.079199552536010742, -0.46375495195388794, -0.37152528762817383, -0.1972380131483078, -0.55834627151489258, -0.38713988661766052, -0.25962558388710022, 0.27143391966819763, 0.40512678027153015, 
  0.05944659560918808, 0.12229018658399582, 0.18041622638702393, -0.19497957825660706, 0.036874394863843918, -0.32017126679420471, 0.093486815690994263, -0.15540578961372375, -0.19207531213760376, -0.16418777406215668, 0.67159706354141235, 0.15918126702308655, -0.092923812568187714, 0.15557178854942322, 0.33275234699249268, 0.06613624095916748, -0.47750413417816162, 0.37818449735641479, -0.15712545812129974, -0.26467627286911011, -0.40690428018569946, 0.24343100190162659, 0.25685471296310425, 0.078826658427715302, -0.22204549610614777, 0.027319600805640221, -0.29907354712486267, -0.12667398154735565, 0.088155388832092285, -0.12034489959478378, 0.13729000091552734, 0.22884641587734222, 
  -0.081054575741291046, 0.17090955376625061, -0.080263726413249969, -0.0066005336120724678, 0.16440103948116302, 0.11881127953529358, -0.064535647630691528, 0.40918314456939697, 0.24744011461734772, -0.077150337398052216, -0.055412366986274719, -0.25202110409736633, 0.31433919072151184, -0.52260661125183105, -0.28497686982154846, 0.33894538879394531, -0.062224790453910828, -0.18042901158332825, 0.31660422682762146, -0.25810292363166809, 0.36072951555252075, 0.44980654120445251, -0.47987526655197144, 0.4735337495803833, 0.52716374397277832, -0.25333124399185181, 0.013230248354375362, 0.030693080276250839, -0.2330414205789566, 0.29149162769317627, -0.72721129655838013, -0.22785019874572754, 
  0.11579829454421997, 0.21582561731338501, 0.25489839911460876, -0.078661680221557617, 0.027218634262681007, -0.50351202487945557, -0.2386774867773056, 0.080137439072132111, -0.04862140491604805, 0.12178837507963181, 0.16799457371234894, 0.54160797595977783, -0.0090935733169317245, 0.54201203584671021, 0.088157489895820618, 0.34208792448043823, -0.15160343050956726, 0.17444416880607605, 0.17505840957164764, -0.010849827900528908, -0.31298944354057312, -0.12503485381603241, 0.30460140109062195, 0.15674945712089539, -0.30901768803596497, -0.22752748429775238, -0.16560778021812439, -0.57498586177825928, 0.0088847940787672997, -0.25799095630645752, 0.12025448679924011, -0.13099066913127899, 
  -0.20061652362346649, -0.32569977641105652, -0.12543672323226929, -0.35757544636726379, 0.067587465047836304, -0.17010824382305145, 0.49553212523460388, -0.012201603502035141, -0.32658788561820984, -0.42945584654808044, -0.37829422950744629, -0.00020528951426967978, -0.18597574532032013, 0.34798222780227661, 0.34411796927452087, 0.2074790894985199, 0.088860400021076202, -0.39263555407524109, 0.53000479936599731, -0.043578680604696274, 0.43261715769767761, -0.37659892439842224, 0.0838613361120224, -0.28837299346923828, 0.26540708541870117, -0.016305599361658096, 0.0048970384523272514, -0.11882650852203369, 0.286765456199646, 0.16808174550533295, 0.22820585966110229, 0.14765459299087524, 
  0.17063514888286591, -0.15748761594295502, 0.21360504627227783, 0.13915306329727173, 0.049992501735687256, -0.1965806782245636, 0.032428797334432602, -0.017417231574654579, 0.16383664309978485, 0.45106741786003113, 0.16599757969379425, 0.24552790820598602, 0.024702435359358788, 0.10101143270730972, 0.34535184502601624, -0.54809373617172241, -0.078759931027889252, 0.72976398468017578, -0.55552011728286743, 0.16000549495220184, -0.62204724550247192, 0.14453858137130737, -0.021035047248005867, 0.073891624808311462, -0.33819088339805603, 0.30633199214935303, -0.29653802514076233, -0.051466677337884903, -0.11037511378526688, -0.058650404214859009, 0.04271390289068222, -0.21633598208427429, 
  -0.19650281965732574, 0.284799724817276, -0.21622106432914734, -0.0092988777905702591, 0.39188379049301147, -0.029044132679700851, -0.022212842479348183, -0.31402644515037537, 0.0011696403380483389, -0.3635287880897522, 0.17709667980670929, 0.330037921667099, 0.079557031393051147, 0.27470210194587708, 0.36553332209587097, 0.23820173740386963, -0.55334901809692383, 0.030328575521707535, 0.0096188122406601906, -0.23474003374576569, -0.38287010788917542, 0.27439376711845398, 0.065187536180019379, -0.25791725516319275, -0.055131807923316956, -0.23812501132488251, -0.37508335709571838, 0.36368027329444885, -0.080583095550537109, -0.18887138366699219, 0.53062736988067627, 0.14639389514923096, 
  0.45447444915771484, -0.13785357773303986, -0.29640862345695496, 0.75943320989608765, -0.1299818754196167, 0.096566751599311829, -0.35024043917655945, 0.078950844705104828, 0.20864646136760712, 0.016882644966244698, 0.37786060571670532, 0.44381088018417358, 0.31381180882453918, -0.24458326399326324, 0.24366582930088043, -0.11912865936756134, 0.2661234438419342, 0.18275591731071472, -0.21220016479492188, -0.19035089015960693, 0.013807548210024834, 0.16169083118438721, -0.20868606865406036, 0.21175643801689148, -0.264272540807724, 0.42309698462486267, -0.39172250032424927, 0.34891477227210999, -0.35934114456176758, 0.5293768048286438, -0.0078753521665930748, 0.08197338879108429, 
  -0.47924345731735229, -0.020603811368346214, -0.14596904814243317, -0.44307336211204529, 0.41433441638946533, -0.049804382026195526, 0.43649202585220337, -0.45937681198120117, -0.24926164746284485, -0.37331485748291016, -0.11313285678625107, 0.034622333943843842, -0.33307760953903198, 0.30785277485847473, 0.25331541895866394, 0.47233688831329346, -0.31861129403114319, -0.54347884654998779, 0.35692539811134338, 0.085587091743946075, -0.29232552647590637, -0.1698174923658371, 0.14224156737327576, -0.04349173977971077, 0.31206676363945007, -0.17184154689311981, 0.13049174845218658, -0.079794585704803467, 0.36557748913764954, -0.32356369495391846, 0.1433262825012207, 0.0237080417573452, 
  -0.21256767213344574, 0.11909036338329315, -0.043309565633535385, 0.23380573093891144, -0.21996119618415833, -0.052427731454372406, 0.027389541268348694, 0.29481163620948792, 0.38335219025611877, 0.15731552243232727, -0.21731427311897278, -0.041631385684013367, -0.016691656783223152, -0.41246360540390015, 0.01798463799059391, -0.066100768744945526, 0.05572202056646347, -0.23991969227790833, 0.14177611470222473, -0.031802177429199219, 0.25854438543319702, -0.074419036507606506, -0.29218026995658875, 0.012540639378130436, -0.18884529173374176, -0.21382740139961243, -0.09390539675951004, -0.2727448046207428, -0.34849560260772705, -0.035958245396614075, -0.11050862818956375, 0.021774761378765106, 
  0.098502069711685181, -0.27857509255409241, -0.20084384083747864, 0.47753164172172546, 0.1927998811006546, 0.30323374271392822, -0.38630193471908569, -0.48852702975273132, -0.027303647249937057, 0.16248391568660736, 0.50438672304153442, -0.092652596533298492, -0.070848681032657623, -0.27824079990386963, 0.42942515015602112, 0.055829167366027832, 0.16961976885795593, 0.025205453857779503, -0.00016097511979751289, -0.17726238071918488, 0.11436539888381958, 0.71990025043487549, 0.26215162873268127, 0.34308299422264099, 0.25328925251960754, -0.045180410146713257, -0.2935737669467926, 0.60838282108306885, 0.24120043218135834, 0.039390530437231064, 0.020805785432457924, 0.27684372663497925, 
};
const TfArray<2, int> tensor_dimension8 = { 2, { 16, 32, } };
const ALIGN(8) float tensor_data9[4*16] = { 
  -1.2055346965789795, 0.27128243446350098, 0.31239330768585205, -0.80905020236968994, -0.15588320791721344, 0.22512535750865936, 0.56384426355361938, -0.94308662414550781, 0.23191815614700317, 0.89144062995910645, -1.0091935396194458, 0.75645732879638672, -0.89077353477478027, 0.91188371181488037, 0.11693968623876572, 0.20409095287322998, 
  -0.030119121074676514, -0.99692261219024658, 0.060618914663791656, 0.11586607992649078, 0.92477798461914062, 0.41427397727966309, -0.50607049465179443, -0.31434080004692078, 0.40098124742507935, 0.23551715910434723, 0.045568808913230896, -0.75374841690063477, -0.24578970670700073, -0.36187285184860229, -0.62101280689239502, -0.8030242919921875, 
  -0.25734680891036987, 0.19031108915805817, -0.89871251583099365, -0.84569114446640015, -0.65567195415496826, 0.41980421543121338, 0.75748485326766968, -0.77795839309692383, 0.25326856970787048, -0.92940562963485718, 0.88408839702606201, 0.3302077054977417, 0.40572851896286011, -1.1762360334396362, 0.42595693469047546, 0.46842780709266663, 
  -0.20544867217540741, 0.45379173755645752, 0.40262466669082642, -0.072546526789665222, -0.49824568629264832, -0.70381498336791992, -0.79099756479263306, 0.13143329322338104, -0.80478513240814209, 0.47351059317588806, -0.36275288462638855, -0.41710966825485229, 0.42314109206199646, -0.43137186765670776, -0.22295884788036346, 0.55568605661392212, 
};
const TfArray<2, int> tensor_dimension9 = { 2, { 4, 16, } };
const ALIGN(8) float tensor_data10[16*3*3*1] = { 
  /* [0][0][][] */ 0.016346054151654243, -0.29730796813964844, 0.33824172616004944, 
  /* [0][1][][] */ 0.28667524456977844, -0.14714483916759491, 0.12357048690319061, 
  /* [0][2][][] */ 0.1984807550907135, -0.15112349390983582, -0.037423130124807358, 
  /* [1][0][][] */ 0.098362304270267487, -0.1253584623336792, 0.35963925719261169, 
  /* [1][1][][] */ 0.058338001370429993, -0.13152839243412018, 0.24021074175834656, 
  /* [1][2][][] */ 0.25035679340362549, -0.072005748748779297, 0.14888985455036163, 
  /* [2][0][][] */ 0.013482811860740185, -0.12191767245531082, -0.14990025758743286, 
  /* [2][1][][] */ 0.16484394669532776, -0.21251174807548523, -0.23780657351016998, 
  /* [2][2][][] */ 0.25353303551673889, -0.03745109960436821, -0.21814516186714172, 
  /* [3][0][][] */ 0.16675078868865967, 0.31948405504226685, 0.29902219772338867, 
  /* [3][1][][] */ -0.056628994643688202, 0.21276576817035675, 0.10036373138427734, 
  /* [3][2][][] */ 0.049130260944366455, 0.19338370859622955, 0.094314850866794586, 
  /* [4][0][][] */ 0.26773679256439209, 0.1164499968290329, 0.4622763991355896, 
  /* [4][1][][] */ 0.26931589841842651, 0.0075458786450326443, 0.36840188503265381, 
  /* [4][2][][] */ 0.34841135144233704, 0.10069280117750168, 0.29823988676071167, 
  /* [5][0][][] */ -0.42190858721733093, 0.029421566054224968, -0.20506475865840912, 
  /* [5][1][][] */ 0.03648027777671814, -0.074775837361812592, -0.10446274280548096, 
  /* [5][2][][] */ -0.073037624359130859, 0.018541252240538597, 0.049113888293504715, 
  /* [6][0][][] */ 0.11629254370927811, -0.099949054419994354, -0.24478119611740112, 
  /* [6][1][][] */ 0.11641855537891388, -0.058194536715745926, -0.083606384694576263, 
  /* [6][2][][] */ 0.14006201922893524, -0.074119307100772858, -0.18921986222267151, 
  /* [7][0][][] */ -0.23008088767528534, 0.06528346985578537, 0.20600271224975586, 
  /* [7][1][][] */ -0.14608612656593323, 0.20483866333961487, 0.038839563727378845, 
  /* [7][2][][] */ -0.065630331635475159, 0.28363001346588135, 0.20736023783683777, 
  /* [8][0][][] */ 0.35965269804000854, -0.088180646300315857, -0.030207404866814613, 
  /* [8][1][][] */ 0.489967942237854, -0.11160973459482193, -0.22913438081741333, 
  /* [8][2][][] */ 0.2790483832359314, 0.15637983381748199, -0.28620687127113342, 
  /* [9][0][][] */ 0.042607016861438751, 0.22845360636711121, -0.2245536595582962, 
  /* [9][1][][] */ 0.087325647473335266, -0.045202452689409256, -0.48248723149299622, 
  /* [9][2][][] */ -0.045066658407449722, 0.10510344803333282, -0.29631420969963074, 
  /* [10][0][][] */ 0.061921723186969757, 0.38349980115890503, -0.24009138345718384, 
  /* [10][1][][] */ 0.025318259373307228, 0.16516557335853577, -0.085698261857032776, 
  /* [10][2][][] */ -0.20978519320487976, 0.16809102892875671, 0.11073241382837296, 
  /* [11][0][][] */ -0.011988731101155281, 0.17054425179958344, -0.35121074318885803, 
  /* [11][1][][] */ -0.065218523144721985, 0.050140094012022018, -0.2638736367225647, 
  /* [11][2][][] */ 0.11385968327522278, -0.11191633343696594, -0.4557984471321106, 
  /* [12][0][][] */ 0.046623833477497101, 0.41671186685562134, 0.31909245252609253, 
  /* [12][1][][] */ 0.019528539851307869, 0.3734748363494873, 0.15029065310955048, 
  /* [12][2][][] */ 0.060467254370450974, 0.46715474128723145, 0.089662745594978333, 
  /* [13][0][][] */ 0.021121039986610413, 0.074057631194591522, -0.096174739301204681, 
  /* [13][1][][] */ -0.26880565285682678, 0.0039819148369133472, 0.13253974914550781, 
  /* [13][2][][] */ -0.24919125437736511, -0.19776351749897003, -0.098980069160461426, 
  /* [14][0][][] */ 0.20975798368453979, 0.01705629751086235, -0.29138198494911194, 
  /* [14][1][][] */ 0.13957466185092926, 0.21514309942722321, -0.14935262501239777, 
  /* [14][2][][] */ 0.12716343998908997, 0.29382795095443726, -0.29313006997108459, 
  /* [15][0][][] */ 0.20751304924488068, 0.0078489193692803383, -0.035369709134101868, 
  /* [15][1][][] */ 0.099301815032958984, -0.31885823607444763, -0.052167478948831558, 
  /* [15][2][][] */ 0.26334279775619507, 0.081195883452892303, -0.074245356023311615, 
};
const TfArray<4, int> tensor_dimension10 = { 4, { 16, 3, 3, 1, } };
const ALIGN(8) float tensor_data11[32*3*3*16] = { 
  /* [0][0][][] */ -0.015914225950837135,-0.00233118562027812,-0.063218429684638977,-0.25988006591796875,-0.13049042224884033,-0.0046000257134437561,-0.037773597985506058,0.026786958798766136,-0.21814186871051788,0.1829066127538681,0.032513651996850967,0.2860318124294281,-0.23674130439758301,-0.059191130101680756,0.051381222903728485,-0.024382779374718666, -0.13812722265720367,0.085513904690742493,-0.080579377710819244,-0.14520470798015594,-0.0282023586332798,0.0021619198378175497,-0.024732299149036407,0.0025342367589473724,-0.023270236328244209,0.14234372973442078,0.20616824924945831,0.11438515037298203,-0.17006862163543701,0.01741371862590313,-0.17278523743152618,-0.0085892900824546814, 0.095056988298892975,0.039802111685276031,0.067510038614273071,-0.15090936422348022,-0.10911416262388229,0.22856937348842621,0.11882206797599792,0.15241481363773346,0.041128616780042648,0.016177799552679062,0.072277076542377472,0.038707233965396881,-0.16991350054740906,0.02383776567876339,-0.18194055557250977,0.038138937205076218, 
  /* [0][1][][] */ 0.13980567455291748,0.024700181558728218,-0.026379905641078949,-0.12497064471244812,-0.016621217131614685,0.025451896712183952,0.046808701008558273,0.042391292750835419,0.063414297997951508,0.17947389185428619,0.099558867514133453,0.084093868732452393,-0.064589887857437134,0.12651009857654572,0.1366928368806839,0.13186825811862946, -0.03483855351805687,0.078692547976970673,-0.0071838228031992912,-0.16822434961795807,-0.045824218541383743,0.077142246067523956,0.064301460981369019,0.22350075840950012,-0.084999799728393555,0.05798720195889473,0.1038326621055603,0.19917912781238556,-0.082631275057792664,0.00478712422773242,-0.010709484107792377,-0.017509844154119492, 0.040712404996156693,0.012695935554802418,0.042770039290189743,-0.15895751118659973,-0.20881471037864685,0.070642702281475067,0.080189503729343414,0.1087750568985939,0.11784665286540985,-0.038460854440927505,0.01726151630282402,0.0067650214768946171,-0.25185796618461609,0.057954117655754089,-0.21588064730167389,-0.026643341407179832, 
  /* [0][2][][] */ 0.034483492374420166,0.13627976179122925,0.16009961068630219,-0.027185840532183647,0.12927772104740143,0.10240500420331955,0.12470831722021103,0.26237776875495911,0.061604313552379608,0.1920330673456192,0.056723430752754211,0.08626217395067215,-0.0027557690627872944,0.21596851944923401,0.058204837143421173,0.19776193797588348, 0.076343663036823273,0.21187429130077362,0.15815739333629608,-0.05737583339214325,-0.039958331733942032,0.14908374845981598,0.19052666425704956,0.271607905626297,-0.072556659579277039,0.12457972764968872,0.095546156167984009,-0.013198955915868282,-0.11751126497983932,0.076342850923538208,0.05224759504199028,0.19634814560413361, 0.027354210615158081,0.050976715981960297,0.029540620744228363,-0.16181135177612305,-0.15949563682079315,0.11934683471918106,0.16511556506156921,-0.031284123659133911,0.18924316763877869,-0.063637740910053253,0.12546515464782715,-0.17139320075511932,-0.24730849266052246,-0.0084900446236133575,-0.27099698781967163,0.072737112641334534, 
  /* [1][0][][] */ 0.026664372533559799,-0.061651095747947693,-0.016754152253270149,0.10606627911329269,-0.088673613965511322,0.054879657924175262,0.050714675337076187,0.054393019527196884,-0.39446917176246643,0.12177117168903351,0.049442369490861893,0.10827701538801193,0.14630021154880524,0.048695404082536697,-0.0011380524374544621,-0.026453971862792969, 0.035318434238433838,-0.1423933207988739,0.056568928062915802,0.028180014342069626,0.0021807020530104637,-0.018105201423168182,-0.030031096190214157,0.094934709370136261,0.0024778544902801514,0.048656158149242401,0.1053047701716423,-0.091842673718929291,0.048316273838281631,-0.060079049319028854,0.085836909711360931,0.062826566398143768, 0.021625040099024773,-0.070284560322761536,-0.07638818770647049,-0.013917156495153904,0.12352785468101501,-0.040922258049249649,-0.036720287054777145,-0.12490180879831314,0.056005947291851044,-0.10515224188566208,0.077512405812740326,-0.11525361984968185,0.0076625803485512733,-0.06644391268491745,-0.065071702003479004,0.084821917116641998, 
  /* [1][1][][] */ 0.024773472920060158,-0.036788657307624817,-0.069294296205043793,-0.035092312842607498,0.10810554027557373,0.14208830893039703,-0.060573123395442963,-0.016251210123300552,-0.36626163125038147,0.2338796854019165,0.091827206313610077,0.16349002718925476,-0.019092679023742676,0.10296732932329178,-0.011628356762230396,-0.047028876841068268, -0.022713035345077515,-0.22771239280700684,0.0049526174552738667,-0.015050102956593037,0.024373799562454224,-0.035061739385128021,-0.023566942662000656,0.11613729596138,-0.011460375972092152,0.065256483852863312,0.12490711361169815,0.053760871291160583,0.10912735015153885,0.060715511441230774,0.13489717245101929,-0.00045524060260504484, -0.028633750975131989,-0.024835838004946709,-0.041864935308694839,-0.10621628910303116,0.18651469051837921,-0.0088760629296302795,-0.0022140967193990946,-0.13943196833133698,0.14443126320838928,-0.091160401701927185,0.030897488817572594,-0.081373818218708038,-0.10372588038444519,-0.090365506708621979,-0.0048491093330085278,0.12247500568628311, 
  /* [1][2][][] */ 0.0064683104865252972,-0.04421335831284523,0.0087388381361961365,-0.055821660906076431,0.054615959525108337,0.0053896354511380196,0.0064562130719423294,-0.0016278915572911501,-0.39242628216743469,0.11509216576814651,0.072402752935886383,0.11301203072071075,0.01288809347897768,0.10311327129602432,0.0043372306972742081,0.0089368335902690887, 0.013061052188277245,-0.19844271242618561,-0.049977861344814301,-0.022365422919392586,-0.051730383187532425,-0.024489639326930046,-0.073265962302684784,0.082512378692626953,-0.090376198291778564,0.0022512536961585283,0.15857143700122833,-0.10804309695959091,-0.057151325047016144,0.028063118457794189,-0.0092024197801947594,-0.059008214622735977, -0.012925367802381516,-0.026973139494657516,-0.053647831082344055,0.12685811519622803,0.21227465569972992,-0.060431826859712601,0.00067899242276325822,-0.092036150395870209,0.212532639503479,-0.074262574315071106,0.046499293297529221,-0.17855522036552429,0.036343362182378769,-0.10613609105348587,0.064538411796092987,0.090366572141647339, 
  /* [2][0][][] */ -0.047219507396221161,-0.094475455582141876,-0.12534651160240173,0.080373674631118774,0.16238956153392792,0.035690087825059891,-0.011216402053833008,0.033415522426366806,-0.36187219619750977,-0.0085643809288740158,-0.10982085764408112,0.030386485159397125,0.11972019076347351,-0.053338181227445602,-0.092689476907253265,-0.17433308064937592, -0.030650768429040909,-0.06606832891702652,0.032608054578304291,0.13851818442344666,0.091006994247436523,-0.039072062820196152,-0.054995644837617874,0.023312188684940338,-0.034170214086771011,-0.028025723993778229,0.058154162019491196,-0.16787059605121613,0.033078238368034363,0.024985440075397491,0.17328155040740967,-0.036728084087371826, 0.030992107465863228,0.032699856907129288,0.0093516707420349121,0.018467074260115623,0.067784540355205536,-0.14276936650276184,0.011319984681904316,0.012439504265785217,0.075643874704837799,-0.19419746100902557,0.077492505311965942,-0.03340047225356102,-0.019612317904829979,-0.071345917880535126,-0.040065575391054153,-0.066672384738922119, 
  /* [2][1][][] */ -0.016044268384575844,-0.061749543994665146,-0.093072623014450073,-0.096267916262149811,0.087927438318729401,0.065167360007762909,0.041168611496686935,0.040889166295528412,-0.41339960694313049,0.060003917664289474,0.013557403348386288,0.13605654239654541,-0.018175365403294563,-0.0018289848230779171,-0.16016995906829834,-0.13689585030078888, -0.033124826848506927,-0.1101154088973999,-0.0035153238568454981,0.14179202914237976,0.013006402179598808,0.035998765379190445,-0.0112222945317626,0.12557712197303772,-0.14186260104179382,0.058197524398565292,0.11717347800731659,0.041265305131673813,0.04439520463347435,0.064671240746974945,0.01409753505140543,0.020447872579097748, 0.12973733246326447,-0.13833260536193848,-0.020765796303749084,0.08756566047668457,0.17555481195449829,-0.053379897028207779,-0.0075372681021690369,-0.087458930909633636,0.25492468476295471,-0.030278002843260765,0.057819783687591553,-0.15015438199043274,-0.042132068425416946,-0.12903597950935364,0.12653082609176636,0.004601817112416029, 
  /* [2][2][][] */ -0.015748664736747742,-0.052716687321662903,-0.043250031769275665,-0.044538464397192001,-0.01975054107606411,0.096741810441017151,-0.0089831314980983734,0.21308162808418274,-0.24898238480091095,0.18709306418895721,0.054341606795787811,0.17382831871509552,0.086128003895282745,0.05441177636384964,-0.059372060000896454,-0.024552911520004272, -0.012428037822246552,-0.15190409123897552,0.073860920965671539,-0.054546821862459183,-0.044014144688844681,0.047846108675003052,0.055981326848268509,0.19055731594562531,-0.1134294718503952,0.081233181059360504,0.20347477495670319,0.11528876423835754,-0.12636932730674744,0.0083808386698365211,-0.11799035221338272,-0.033076688647270203, -0.0477161705493927,-0.16815489530563354,0.030404629185795784,-0.093179225921630859,0.16054105758666992,0.0069005112163722515,-0.015727205201983452,-0.065689980983734131,0.192914679646492,-0.15497639775276184,0.088325276970863342,-0.10787969082593918,-0.08504757285118103,0.0088601075112819672,-0.041255135089159012,0.10422495752573013, 
  /* [3][0][][] */ 0.048456501215696335,0.0067657064646482468,0.11928188055753708,0.020792914554476738,-0.022433832287788391,0.11925988644361496,0.22704774141311646,-0.04791732132434845,0.4850354790687561,-0.34772598743438721,-0.17580533027648926,-0.21838259696960449,0.1084204763174057,-0.027676567435264587,-0.013854281045496464,0.18209709227085114, 0.17282073199748993,0.1971416175365448,0.10095096379518509,0.13868671655654907,0.16166765987873077,0.072974160313606262,0.07342076301574707,0.17034640908241272,0.16105510294437408,-0.11141324788331985,-0.040529381483793259,-0.0074791251681745052,0.042650371789932251,0.057038895785808563,0.071343153715133667,0.27551788091659546, 0.1361488401889801,0.10115083307027817,-0.042083360254764557,-0.20938222110271454,-0.12831215560436249,0.021888958290219307,0.10383217036724091,0.0054563703015446663,-0.059184033423662186,-0.1296621710062027,0.018425803631544113,-0.076926775276660919,-0.26195177435874939,0.014572855085134506,-0.2709716260433197,-0.04436028003692627, 
  /* [3][1][][] */ -0.18238267302513123,-0.16102617979049683,-0.035845600068569183,-0.00046800269046798348,-0.052750814706087112,-0.047083277255296707,-0.043961454182863235,-0.047787107527256012,0.51152592897415161,-0.18372760713100433,0.024093667045235634,-0.0023319488391280174,0.036267619580030441,-0.17922434210777283,-0.051460918039083481,0.053115393966436386, -0.043086335062980652,0.10103797167539597,0.083149991929531097,0.10769379884004593,0.22673481702804565,0.019101347774267197,0.1439807116985321,-0.090711019933223724,0.032462619245052338,-0.11384271830320358,-0.014112289994955063,0.10189633816480637,0.016070447862148285,-0.074635997414588928,0.056278437376022339,0.054747574031352997, 0.011070237495005131,0.18444593250751495,0.088792279362678528,-0.24223877489566803,-0.099108487367630005,0.085194520652294159,-0.063906572759151459,0.018480582162737846,-0.13476631045341492,-0.12844054400920868,-0.15751132369041443,-0.11689030379056931,-0.20214089751243591,0.032591521739959717,-0.17656546831130981,0.013696110807359219, 
  /* [3][2][][] */ -0.35759106278419495,0.054546970874071121,-0.18681275844573975,-0.086922086775302887,-0.17511098086833954,-0.25375655293464661,-0.17099806666374207,-0.12169796228408813,0.41846403479576111,-0.0013842888874933124,-0.20284003019332886,0.068004690110683441,0.11656740307807922,-0.24974067509174347,-0.064763069152832031,-0.20696768164634705, 0.023824943229556084,-0.059604469686746597,0.022469574585556984,0.068308994174003601,0.055217910557985306,-0.00026634649839252234,0.017076637595891953,0.1410384476184845,0.18837270140647888,-0.19848138093948364,0.056922201067209244,-0.13438679277896881,0.1145765483379364,0.043248783797025681,0.067354410886764526,-0.084330171346664429, 0.036005742847919464,0.21416084468364716,-0.064937405288219452,-0.21051138639450073,-0.055876851081848145,-0.048434361815452576,0.010511997155845165,0.14934955537319183,-0.22108976542949677,-0.23709732294082642,-0.083121694624423981,-0.093002334237098694,-0.27277174592018127,0.0063448157161474228,-0.17636491358280182,-0.0014863141113892198, 
  /* [4][0][][] */ -0.079446122050285339,0.13177284598350525,-0.013155221939086914,-0.0098970392718911171,-0.11942914128303528,-0.10525508224964142,-0.017666717991232872,-0.2025022953748703,0.33268186450004578,0.082763597369194031,-0.054315213114023209,0.043393712490797043,-0.15569896996021271,0.016270438209176064,-0.093847669661045074,-0.0045186318457126617, -0.13831228017807007,0.078235402703285217,-0.26543974876403809,0.097692511975765228,-0.092002786695957184,-0.052911799401044846,-0.20460203289985657,-0.13087031245231628,0.043177422136068344,0.12247219681739807,0.21384376287460327,0.2885574996471405,0.11066834628582001,-0.090187609195709229,0.14691710472106934,-0.24176025390625, -0.22242134809494019,-0.13599136471748352,-0.15828894078731537,0.056051719933748245,-0.10436892509460449,-0.055704347789287567,-0.031432002782821655,-0.053092490881681442,-0.22052597999572754,0.012117292732000351,-0.11992517113685608,-0.00083000253653153777,0.065441913902759552,-0.071374408900737762,-0.22055678069591522,-0.25357338786125183, 
  /* [4][1][][] */ 0.040065601468086243,-0.0028457124717533588,-0.022811936214566231,-0.024046914651989937,-0.090961381793022156,-0.14472322165966034,-0.16770060360431671,-0.16245581209659576,0.35730808973312378,-0.046107705682516098,0.158058762550354,0.04472021758556366,-0.042431976646184921,-0.15867583453655243,0.028949366882443428,0.033660881221294403, -0.095399588346481323,0.022815398871898651,-0.12797699868679047,0.23618413507938385,0.019493993371725082,-0.19342847168445587,-0.21409431099891663,-0.079238571226596832,0.0015925705665722489,0.20671682059764862,0.088602654635906219,0.09277612715959549,0.11056297272443771,-0.088707774877548218,0.071252912282943726,-0.15607543289661407, -0.013294332660734653,-0.021820789203047752,-0.063421458005905151,-0.013457146473228931,-0.10821953415870667,0.043533090502023697,-0.052396029233932495,-0.11737827211618423,-0.13252958655357361,0.18060651421546936,-0.15238654613494873,0.19774608314037323,0.0021946323104202747,-0.060262043029069901,-0.089713536202907562,-0.12567605078220367, 
  /* [4][2][][] */ -0.07455839216709137,-0.010800847783684731,-0.05192873626947403,0.016855949535965919,-0.20697981119155884,-0.15663895010948181,-0.15356038510799408,-0.24849791824817657,0.28365015983581543,-0.019447501748800278,0.03531951829791069,0.020585743710398674,-0.11073300987482071,-0.070894651114940643,0.087144821882247925,-0.03705524280667305, -0.053889911621809006,0.044133525341749191,-0.13395947217941284,0.2785777747631073,-0.0981464684009552,-0.11810711771249771,-0.11668989807367325,-0.14275467395782471,0.016732748597860336,0.095194511115550995,0.10953564941883087,0.12524156272411346,0.11171451210975647,-0.085089951753616333,0.23638683557510376,-0.12034300714731216, -0.030889417976140976,0.024284703657031059,0.034826558083295822,-0.27390673756599426,-0.12766911089420319,-0.013311555609107018,-0.16857452690601349,-0.13236929476261139,-0.11563822627067566,0.13980379700660706,-0.030763342976570129,0.24311015009880066,-0.11279337108135223,-0.016287660226225853,-0.052198749035596848,0.038411743938922882, 
  /* [5][0][][] */ -0.10681191086769104,-0.025606855750083923,0.043144114315509796,0.055891465395689011,0.20245884358882904,-0.029797067865729332,-0.1153295487165451,-0.1100117415189743,0.14701956510543823,-0.14326703548431396,-0.12378751486539841,-0.19840143620967865,0.04035390168428421,-0.0011596035910770297,-0.15850719809532166,0.027397554367780685, 0.033985886722803116,-0.1420934647321701,0.075596652925014496,-0.03170466423034668,0.0059139784425497055,-0.018587496131658554,-0.0127456896007061,-0.017699968069791794,-0.032729223370552063,-0.044570866972208023,-0.061071064323186874,-0.094884343445301056,-0.078411735594272614,-0.068036176264286041,0.078950032591819763,0.058613188564777374, -0.040304422378540039,0.089987881481647491,-0.019520508125424385,-0.21202197670936584,-0.23644299805164337,0.13441221415996552,0.12355589121580124,-0.051606357097625732,-0.060655251145362854,0.047607846558094025,-0.060507096350193024,-0.066941902041435242,-0.11936257034540176,0.066042549908161163,-0.025238892063498497,0.0045910859480500221, 
  /* [5][1][][] */ 0.06436292827129364,0.042930096387863159,0.045913275331258774,-0.11131657660007477,0.12513147294521332,0.048802953213453293,0.05002126470208168,-0.045795924961566925,0.25394329428672791,-0.19269619882106781,-0.20154574513435364,-0.061346832662820816,0.15332776308059692,-0.023579157888889313,-0.040547572076320648,0.097154371440410614, -0.14734828472137451,-0.06566813588142395,0.14421463012695312,-0.10394347459077835,0.084433943033218384,0.011313788592815399,0.19280558824539185,-0.039632853120565414,-0.07678242027759552,-0.02690456248819828,-0.11035142093896866,-0.06128368154168129,-0.026221310719847679,-0.061701182276010513,0.019602064043283463,-0.051851786673069, -0.016904555261135101,0.048196818679571152,0.078575924038887024,-0.098255671560764313,-0.10889045894145966,0.071491092443466187,0.097794391214847565,0.06736360490322113,-0.13546288013458252,-0.026839578524231911,0.0059967301785945892,-0.17647571861743927,-0.11614561825990677,0.049464210867881775,-0.18120203912258148,0.058467146009206772, 
  /* [5][2][][] */ -0.005830549169331789,-0.049843963235616684,-0.032276634126901627,-0.090003684163093567,0.22537080943584442,0.062572360038757324,-0.10930541902780533,-0.13236698508262634,0.17777977883815765,-0.22035758197307587,-0.080664843320846558,-0.19510281085968018,0.1100332960486412,0.046122133731842041,0.068136908113956451,0.031446926295757294, -0.07003629207611084,-0.014837874099612236,0.064203269779682159,-0.045603487640619278,-0.070987924933433533,-0.091410622000694275,0.17314079403877258,-0.086822926998138428,0.081446968019008636,0.030196862295269966,-0.092484667897224426,-0.0015690332511439919,0.012495848350226879,-0.067876026034355164,-0.014094450511038303,0.069068208336830139, 0.036942437291145325,-0.039699647575616837,0.043049570173025131,-0.102899469435215,-0.22092276811599731,0.12012357264757156,0.06166466698050499,0.14776377379894257,-0.10906139016151428,-0.18359600007534027,-0.10300754010677338,-0.1499338299036026,0.019506141543388367,-0.09273664653301239,-0.10201234370470047,0.031053546816110611, 
  /* [6][0][][] */ 0.047174733132123947,0.098332077264785767,-0.21326522529125214,0.16253483295440674,0.048824723809957504,-0.14515317976474762,-0.25632861256599426,0.069045491516590118,0.28530260920524597,0.19262731075286865,0.16206733882427216,0.1276075541973114,0.020105775445699692,-0.18107357621192932,0.21781660616397858,-0.13335198163986206, -0.011433563195168972,-0.093951426446437836,-0.09235990047454834,-0.28948017954826355,-0.17352570593357086,0.085405543446540833,0.027961717918515205,-0.20358704030513763,0.048259329050779343,0.10451994836330414,-0.22964280843734741,0.065816514194011688,-0.016776682808995247,0.097903512418270111,-0.24460923671722412,0.11931651830673218, 0.010358882136642933,0.0083574177697300911,-0.077246934175491333,0.42775440216064453,0.22581644356250763,0.056225962936878204,-0.040400441735982895,0.0037164262030273676,-0.039259333163499832,0.1495169997215271,-0.042529504746198654,0.019922496750950813,0.22708334028720856,0.12018917500972748,0.087578475475311279,0.037362486124038696, 
  /* [6][1][][] */ 0.092059336602687836,0.071028508245944977,-0.20665831863880157,-0.046891476958990097,0.096879526972770691,-0.14569354057312012,-0.28438195586204529,0.095737531781196594,0.18062154948711395,0.09596668928861618,-0.044664744287729263,0.098505139350891113,-0.048618093132972717,-0.013524642214179039,0.10055951774120331,-0.13965794444084167, 0.092918090522289276,-0.10686919838190079,-0.11544466763734818,-0.20180106163024902,-0.17070610821247101,-0.036446999758481979,-0.020201779901981354,-0.17060267925262451,0.049603056162595749,0.1113465279340744,0.019016092643141747,-0.017985785380005836,-0.16198050975799561,-0.0010418869787827134,1.1869631634908728e-05,-0.075422212481498718, -0.034702528268098831,-0.055004946887493134,-0.062327921390533447,0.47578912973403931,0.17394992709159851,0.058652851730585098,-0.097838141024112701,-0.085599839687347412,-0.12207147479057312,0.074040122330188751,0.099181436002254486,-0.0231056809425354,0.29989355802536011,-0.10154429823160172,0.095004178583621979,-0.06294260174036026, 
  /* [6][2][][] */ 0.032594911754131317,0.18723380565643311,-0.18513679504394531,0.12337139993906021,0.018807264044880867,-0.064937129616737366,-0.17927663028240204,0.19649562239646912,0.0090537760406732559,0.085165373980998993,-0.016378782689571381,-0.060160838067531586,0.18285761773586273,0.011387943290174007,0.3396570086479187,-0.11359855532646179, -0.067868001759052277,-0.20871058106422424,-0.10659989714622498,-0.32332485914230347,-0.017949750646948814,0.07464812695980072,0.030230419710278511,-0.22741353511810303,0.1402391791343689,0.093038991093635559,-0.14986242353916168,0.13857300579547882,-0.16272592544555664,-0.002127407118678093,-0.15508730709552765,-0.017700530588626862, -0.0057725883089005947,0.0092512033879756927,0.031675487756729126,0.4472617506980896,0.2543378472328186,-0.067766427993774414,-0.011417144909501076,0.0077363895252346992,0.02350897341966629,0.052617520093917847,0.041982963681221008,-0.033325344324111938,0.34811732172966003,0.11835014820098877,0.17973148822784424,-0.10936038941144943, 
  /* [7][0][][] */ 0.039438053965568542,0.054980728775262833,-0.071561448276042938,-0.044672384858131409,0.27737239003181458,-0.026604285463690758,-0.054555024951696396,0.030190648511052132,-0.29430761933326721,0.15381976962089539,0.071409702301025391,-0.0085584810003638268,-0.034580189734697342,-0.063636347651481628,-0.16599346697330475,-0.17702095210552216, 0.00028936305898241699,-0.25243031978607178,-0.00031096936436370015,-0.045109592378139496,-0.033375993371009827,0.10079919546842575,-0.037471052259206772,0.1029752641916275,0.058300957083702087,0.26261335611343384,0.15794174373149872,0.19273629784584045,-0.025321098044514656,0.049208708107471466,0.012302068062126637,-0.0026950878091156483, 0.071946665644645691,0.02414080873131752,0.13927415013313293,0.025248279795050621,-0.031848423182964325,-0.028709761798381805,0.054507333785295486,0.077951446175575256,0.14360609650611877,-0.13204354047775269,0.12334547936916351,-0.10137826949357986,-0.086249493062496185,0.042728092521429062,-0.18513494729995728,0.072410911321640015, 
  /* [7][1][][] */ 0.019376097247004509,-0.10712360590696335,0.039138969033956528,-0.080324023962020874,0.38988584280014038,0.12216073274612427,-0.089562833309173584,0.024006068706512451,-0.28925231099128723,0.2094341516494751,0.032061133533716202,0.11711794137954712,0.0633883997797966,0.024219194427132607,-0.078871898353099823,-0.13890229165554047, -0.050042394548654556,-0.24002932012081146,0.042948544025421143,-0.12075499445199966,-0.10710019618272781,0.056432206183671951,0.0055007413029670715,0.15943370759487152,-0.020072512328624725,0.15738910436630249,0.27062907814979553,0.099263943731784821,0.020611677318811417,0.10346517711877823,0.13983811438083649,0.0078776245936751366, 0.034310713410377502,-0.10490820556879044,0.037931110709905624,-0.2177496999502182,0.024845156818628311,0.15407776832580566,0.13174460828304291,-0.024706263095140457,0.17072083055973053,-0.032119963318109512,0.11402235180139542,-0.23567311465740204,-0.2526334822177887,-0.060865234583616257,-0.18081346154212952,0.074500866234302521, 
  /* [7][2][][] */ -0.10837247967720032,-0.020932691171765327,-0.02220599353313446,-0.20949061214923859,0.049934022128582001,0.12108368426561356,0.046650994569063187,-0.092170611023902893,-0.30564627051353455,0.11696382611989975,0.095852106809616089,0.12218520045280457,-0.083192765712738037,0.014789110980927944,-0.098301559686660767,0.049396492540836334, -0.073280028998851776,-0.25538161396980286,0.062068343162536621,-0.022245218977332115,-0.09238126128911972,0.063137352466583252,0.011246952228248119,0.26373746991157532,-0.11350736021995544,0.077566444873809814,0.16131067276000977,0.096895970404148102,0.13620252907276154,0.08217959851026535,0.072630442678928375,-0.037567481398582458, 0.048146780580282211,-0.11063907295465469,0.0406341552734375,-0.19549083709716797,0.18821215629577637,-0.0069494876079261303,0.078680753707885742,0.074358023703098297,0.19511426985263824,-0.25859701633453369,0.10565690696239471,-0.28041312098503113,-0.14840170741081238,-0.069778569042682648,-0.11788290739059448,0.11502644419670105, 
  /* [8][0][][] */ 0.011634118854999542,-0.022986331954598427,-0.04188164696097374,-0.17297066748142242,0.13507521152496338,0.043706461787223816,-0.17639331519603729,-0.22490544617176056,-0.18743366003036499,0.16124230623245239,0.14203684031963348,0.20052827894687653,-0.091898791491985321,-0.13011564314365387,-0.041186321526765823,-0.14703905582427979, -0.02118506096303463,0.083668440580368042,0.055358882993459702,-0.06475568562746048,-0.11459239572286606,0.042113043367862701,0.040706519037485123,0.12812504172325134,-0.030240701511502266,0.29074060916900635,0.011406057514250278,0.30762690305709839,-0.089022114872932434,0.13866239786148071,0.14040108025074005,0.017690626904368401, 0.085792258381843567,0.15411372482776642,0.054438821971416473,-0.17030665278434753,-0.21757316589355469,0.11383704841136932,-0.040145013481378555,0.075257793068885803,-0.019692858681082726,-0.043218705803155899,0.14583560824394226,-0.062745429575443268,-0.01525734830647707,0.021593887358903885,-0.26630991697311401,0.089795127511024475, 
  /* [8][1][][] */ -0.0062683084979653358,0.013343842700123787,0.023877039551734924,-0.038085125386714935,-0.073194742202758789,0.063680708408355713,0.070037759840488434,-0.11243041604757309,-0.26703867316246033,0.18625418841838837,0.1608748733997345,0.21081963181495667,-0.071530774235725403,0.0093442508950829506,0.01267223060131073,-0.031566634774208069, -0.10677222162485123,-0.063885696232318878,0.0010503701632842422,-0.1716458648443222,-0.1165320873260498,0.080398224294185638,0.0068344785831868649,0.080353587865829468,-0.094752855598926544,0.20828886330127716,-0.024242771789431572,0.11856753379106522,0.0021200964692980051,0.13835957646369934,0.12560831010341644,0.095630615949630737, -0.030830236151814461,-0.090815775096416473,0.12741084396839142,-0.23052279651165009,-0.19613280892372131,0.039828892797231674,0.12615823745727539,0.25274288654327393,0.12437794357538223,-0.13056758046150208,0.17472289502620697,-0.018378108739852905,-0.21652345359325409,0.076551109552383423,-0.22084322571754456,0.16368661820888519, 
  /* [8][2][][] */ -0.027935028076171875,-0.035389043390750885,0.1571650505065918,-0.064334578812122345,0.058270484209060669,0.0744515061378479,0.13123054802417755,-0.02644786611199379,-0.19862714409828186,0.19573648273944855,0.092255018651485443,0.19344085454940796,-0.095687240362167358,0.10411813110113144,-0.10332823544740677,0.067516334354877472, -0.021978424862027168,-0.037622693926095963,0.036511462181806564,-0.020370336249470711,-0.16916488111019135,0.10335830599069595,0.10147025436162949,0.1642245352268219,-0.032266296446323395,0.17162534594535828,0.13735413551330566,0.071331322193145752,0.094506725668907166,0.11441855132579803,0.1144949272274971,0.12195363640785217, 0.064280569553375244,0.026773883029818535,0.15690192580223083,-0.25785815715789795,0.012251380831003189,0.082962930202484131,0.070110209286212921,0.12028791010379791,0.080545082688331604,-0.1831696629524231,-0.042576991021633148,-0.097851626574993134,-0.213486447930336,-0.092334046959877014,-0.21511504054069519,0.22838218510150909, 
  /* [9][0][][] */ 0.025437312200665474,-0.089092448353767395,0.062870405614376068,-0.20733053982257843,-0.052208315581083298,0.022970825433731079,0.10033606737852097,-0.1509300023317337,-0.067744649946689606,0.26519599556922913,0.057593874633312225,0.13998737931251526,-0.21677128970623016,0.027327720075845718,-0.051246229559183121,-0.0035666830372065306, -0.072989135980606079,0.047570768743753433,0.025012122467160225,-0.23072294890880585,-0.25583893060684204,0.04620695486664772,0.038487032055854797,-0.084308132529258728,-0.10565845668315887,0.21936492621898651,0.18146117031574249,0.26413092017173767,-0.15454165637493134,0.085801951587200165,-0.037695959210395813,-0.049511190503835678, 0.041121296584606171,0.12569601833820343,0.0787334144115448,-0.1485639363527298,-0.24156446754932404,0.24650727212429047,0.063718214631080627,0.25570780038833618,-0.051078308373689651,0.034096825867891312,0.19038832187652588,-0.064638674259185791,-0.22699470818042755,0.14251910150051117,-0.088848523795604706,0.029216514900326729, 
  /* [9][1][][] */ 0.09788639098405838,0.018028801307082176,0.019051576033234596,-0.053106304258108139,-0.19302076101303101,0.10506193339824677,0.057113643735647202,0.1017514243721962,-0.062254231423139572,0.10911902040243149,0.033896218985319138,0.15219719707965851,-0.17083148658275604,0.0016320495633408427,0.091386139392852783,0.11746975034475327, 0.0049148849211633205,0.11945639550685883,0.10972180962562561,-0.036398503929376602,-0.12576009333133698,0.06182103231549263,0.064973868429660797,0.12874418497085571,-0.053468819707632065,0.1745673269033432,0.067484751343727112,0.065027259290218353,-0.11765559762716293,0.15004047751426697,-0.002304562833160162,-0.043240856379270554, 0.096958868205547333,0.11279462277889252,0.046935394406318665,-0.32458069920539856,-0.14116345345973969,0.098434224724769592,0.019098339602351189,0.14813514053821564,0.041446518152952194,-0.068038299679756165,0.067410215735435486,-0.11342704296112061,-0.032478813081979752,0.1047479584813118,-0.14745143055915833,0.088318206369876862, 
  /* [9][2][][] */ 0.21069838106632233,0.17039081454277039,0.084599599242210388,0.01699303463101387,-0.16180324554443359,0.14658942818641663,0.16470444202423096,0.30847164988517761,0.11184415966272354,0.044348970055580139,-0.0060490029864013195,0.10690218955278397,0.085851483047008514,0.088857695460319519,0.20002983510494232,0.20425499975681305, 0.12971343100070953,0.15842841565608978,0.16441091895103455,0.044034186750650406,0.023483719676733017,0.15702195465564728,0.15000239014625549,0.33833214640617371,0.11235474795103073,-0.18152670562267303,0.0056749428622424603,-0.22626905143260956,-0.12846201658248901,0.058250837028026581,0.13096272945404053,0.2212146669626236, 0.11464072018861771,0.18683890998363495,0.13358195126056671,-0.22357621788978577,0.12266634404659271,0.029016707092523575,0.14747603237628937,-0.013563479296863079,0.11145927011966705,-0.11788148432970047,-0.076389767229557037,-0.032135698944330215,-0.16788356006145477,0.098447695374488831,-0.035730995237827301,0.042631663382053375, 
  /* [10][0][][] */ -0.3041682243347168,-0.30231913924217224,-0.30156829953193665,0.3162040114402771,0.22923712432384491,-0.3971753716468811,-0.21261240541934967,-0.17775394022464752,-0.06635630875825882,-0.12043571472167969,-0.26122370362281799,-0.22038847208023071,0.28554272651672363,-0.37753108143806458,0.23898604512214661,-0.30264309048652649, -0.16924233734607697,-0.14158448576927185,-0.13366752862930298,0.18216651678085327,0.17304442822933197,-0.31289845705032349,-0.12702888250350952,-0.21763581037521362,-0.090584985911846161,-0.044316265732049942,-0.12105994671583176,-0.11214316636323929,0.17068548500537872,-0.18609382212162018,0.02028457447886467,-0.13598339259624481, 0.0093145072460174561,-0.023255344480276108,-0.020563194528222084,-0.026800703257322311,0.074537292122840881,-0.095452412962913513,-0.081009119749069214,-0.062390390783548355,0.11271357536315918,0.0031835820991545916,-0.013476221822202206,-0.13584397733211517,-0.048204641789197922,-0.17330740392208099,0.171128049492836,-0.098279461264610291, 
  /* [10][1][][] */ -0.22742348909378052,-0.50236797332763672,-0.35550719499588013,0.16118444502353668,0.057236500084400177,-0.45797857642173767,-0.26766610145568848,-0.27265235781669617,0.030956070870161057,0.18691740930080414,-0.05472511425614357,0.055683359503746033,0.21898514032363892,-0.31595215201377869,0.070986092090606689,-0.20498871803283691, -0.12896975874900818,-0.12415048480033875,-0.15760685503482819,0.04252205416560173,-0.11063333600759506,-0.15984375774860382,-0.20423667132854462,-0.19266064465045929,-0.10109879821538925,0.034355286508798599,-0.038291275501251221,-0.11209487169981003,0.11020924896001816,-0.13398116827011108,-0.07937043160200119,-0.22661739587783813, 0.035307705402374268,-0.029821723699569702,-0.052122224122285843,0.061117053031921387,-0.058131184428930283,0.072599127888679504,-0.035564124584197998,-0.14503969252109528,-0.098788335919380188,0.012242649681866169,-0.086943104863166809,0.014914350584149361,-0.080612450838088989,-0.074424996972084045,0.07358214259147644,-0.1446184366941452, 
  /* [10][2][][] */ -0.33397138118743896,-0.24802017211914062,-0.27150952816009521,-0.031732693314552307,-0.076735258102416992,-0.21451328694820404,-0.31375265121459961,-0.41340067982673645,-0.086882606148719788,0.36564913392066956,0.12863337993621826,0.27192854881286621,-0.050607021898031235,-0.33022812008857727,-0.15670894086360931,-0.22472758591175079, -0.17308323085308075,-0.12131783366203308,-0.18033558130264282,-0.033296812325716019,-0.13443531095981598,-0.059013709425926208,-0.093767963349819183,-0.04993264377117157,-0.20653852820396423,0.20643126964569092,0.05920000746846199,0.16108740866184235,-0.051942843943834305,-0.0099044498056173325,-0.24046733975410461,-0.23185978829860687, 0.0068740309216082096,0.11981751769781113,-0.071257218718528748,-0.050315484404563904,-0.32421538233757019,0.10287269949913025,-0.017060365527868271,0.076100923120975494,-0.22602178156375885,-0.020292842760682106,-0.16812187433242798,-0.16349853575229645,-0.0093796327710151672,0.00097771827131509781,0.077053733170032501,-0.14641234278678894, 
  /* [11][0][][] */ 0.28357845544815063,0.27121284604072571,0.16547806560993195,-0.016282478347420692,-0.14269423484802246,0.19895593822002411,0.27388328313827515,0.1242874413728714,0.15735311806201935,0.10806627571582794,0.14545001089572906,0.18380084633827209,-0.16529794037342072,0.2307373583316803,0.0053827185183763504,0.15187062323093414, 0.064039632678031921,0.25315409898757935,0.026742594316601753,0.053012829273939133,-0.18097326159477234,0.14331729710102081,0.089287653565406799,0.15111859142780304,0.011098315007984638,0.04050951823592186,0.18136769533157349,0.03395741805434227,-0.0056453170254826546,0.15795040130615234,0.12385160475969315,0.11322511732578278, 0.057557817548513412,0.13577905297279358,0.12328411638736725,-0.171452596783638,-0.095592714846134186,0.017780333757400513,0.066398680210113525,-0.040063541382551193,0.061327792704105377,-0.01057145930826664,-0.034754466265439987,-0.00027250626590102911,0.0508880615234375,0.071084499359130859,-0.045749928802251816,0.084480531513690948, 
  /* [11][1][][] */ 0.080043062567710876,0.24364982545375824,0.10538074374198914,0.084946371614933014,-0.18193234503269196,0.16468629240989685,0.29036623239517212,0.29056623578071594,0.12283559143543243,-0.19659759104251862,0.053951568901538849,-0.18694154918193817,-0.10306830704212189,0.085383571684360504,0.042865373194217682,0.27939614653587341, 0.086379826068878174,0.24229997396469116,0.10634405910968781,0.13558743894100189,-0.12571597099304199,0.13329207897186279,0.13121296465396881,0.13118404150009155,-0.061724789440631866,-0.066851250827312469,-0.019107477739453316,-0.098586775362491608,-0.062660716474056244,0.20252552628517151,0.091724850237369537,0.1529870480298996, 0.082476578652858734,0.00056509050773456693,0.01170848123729229,-0.19783973693847656,0.056075681000947952,0.14497442543506622,0.12652875483036041,-0.063429862260818481,0.044248446822166443,0.025492651388049126,0.014577154070138931,-0.045645467936992645,0.016364119946956635,0.040550969541072845,-0.041450459510087967,0.1091829314827919, 
  /* [11][2][][] */ 0.20319053530693054,0.29928380250930786,0.20435048639774323,0.21020492911338806,-0.16708041727542877,0.14814595878124237,0.1969464123249054,0.15104423463344574,0.16024081408977509,-0.28725150227546692,-0.075513623654842377,-0.35560771822929382,-0.0049996334128081799,0.26500940322875977,0.17582930624485016,0.13604742288589478, 0.055381111800670624,0.18048316240310669,0.096219591796398163,0.17505472898483276,-0.031614646315574646,0.11951617151498795,0.20075774192810059,0.061854168772697449,0.0068637896329164505,-0.14922195672988892,-0.1303180456161499,-0.011944173835217953,-0.0063840765506029129,0.058870766311883926,0.144495889544487,0.12732376158237457, 0.10135997086763382,-0.00051983766024932265,0.061488471925258636,-0.15430334210395813,0.11470255255699158,-0.025894755497574806,0.09263688325881958,0.015211916528642178,0.052488431334495544,0.037722092121839523,0.072800062596797943,-0.043890118598937988,-0.043832037597894669,-0.041582372039556503,0.091840028762817383,0.019737768918275833, 
  /* [12][0][][] */ 0.10874765366315842,0.010745643638074398,0.098003573715686798,0.07303939014673233,-0.023130463436245918,0.099819667637348175,0.14298370480537415,-0.022829078137874603,-0.035702463239431381,-0.14674593508243561,-0.039462991058826447,-0.20774999260902405,-0.028044052422046661,0.14937259256839752,0.089262485504150391,0.021995700895786285, 0.14582759141921997,0.15426266193389893,0.06889670342206955,-0.083096370100975037,0.14239805936813354,0.046045441180467606,0.051963735371828079,0.080990880727767944,-0.14367762207984924,-0.17171178758144379,0.0088333189487457275,-0.12678228318691254,0.011828908696770668,-0.037923417985439301,-0.076190054416656494,0.12818451225757599, -0.01820763573050499,0.012065681628882885,0.0053541399538516998,-0.087194070219993591,-0.0056774537079036236,0.035605665296316147,0.069738268852233887,-0.069074645638465881,0.024053957313299179,-0.086305111646652222,-0.19849725067615509,-0.22597484290599823,-0.026876674965023994,0.053741671144962311,-0.19871111214160919,0.038222320377826691, 
  /* [12][1][][] */ -0.055585358291864395,0.0034669088199734688,-0.047941934317350388,0.20429219305515289,0.14416748285293579,0.01297582034021616,-0.0057888366281986237,0.081946112215518951,-0.097583293914794922,-0.1480916291475296,-0.10672188550233841,-0.050849787890911102,0.030244838446378708,0.1126486137509346,0.15377303957939148,-0.061712779104709625, 0.098398454487323761,0.044151876121759415,0.0026158282998949289,0.14669498801231384,0.078728541731834412,-0.14969973266124725,-0.060562364757061005,-0.036930639296770096,-0.095478229224681854,-0.19038401544094086,-0.019432170316576958,-0.15860424935817719,0.039883885532617569,-0.23369134962558746,0.011288627982139587,0.036521825939416885, 0.048023480921983719,0.090909384191036224,0.061995320022106171,-0.04554130882024765,0.14317481219768524,0.010835334658622742,0.0079203732311725616,-0.03419065847992897,0.056524612009525299,-0.16537688672542572,-0.13318051397800446,-0.28897634148597717,-0.178945392370224,-0.014074333943426609,-0.18910077214241028,0.078003905713558197, 
  /* [12][2][][] */ -0.016035288572311401,-0.1270904541015625,-0.16851484775543213,0.18024109303951263,0.23858116567134857,-0.11441200971603394,-0.19201301038265228,-0.001078598783351481,-0.12042031437158585,-0.14719612896442413,-0.0051629766821861267,-0.10118172317743301,0.1012563556432724,-0.01711004227399826,0.22533951699733734,-0.1331411749124527, 0.040137138217687607,-0.083793237805366516,-0.11496962606906891,0.12665870785713196,0.1408333033323288,-0.078899599611759186,-0.042818266898393631,-0.065022461116313934,-0.14606168866157532,-0.22692495584487915,-0.1383272260427475,-0.29505130648612976,-0.0076330103911459446,-0.24798670411109924,-0.017839349806308746,-0.040198158472776413, -0.036275170743465424,0.12007354199886322,0.018485944718122482,0.02351779118180275,0.13453081250190735,-0.069210141897201538,0.027143919840455055,-0.079854592680931091,0.059863947331905365,-0.13614653050899506,-0.059208471328020096,-0.2717951238155365,-0.026206765323877335,-0.23706302046775818,-0.19999386370182037,0.0052134809084236622, 
  /* [13][0][][] */ 0.035517934709787369,-0.012190463952720165,0.064410276710987091,0.07487332820892334,-0.045115374028682709,0.18734081089496613,0.074286565184593201,0.21081262826919556,-0.31997400522232056,-0.25924110412597656,-0.1641661524772644,-0.2904374897480011,0.24824486672878265,0.15288414061069489,-0.086918085813522339,0.10368316620588303, -0.041833557188510895,-0.15376961231231689,0.072868809103965759,0.052650962024927139,0.13779169321060181,0.13032199442386627,0.1062793955206871,0.02288084477186203,0.0039397496730089188,-0.059676151722669601,-0.077618896961212158,0.0021615840960294008,0.08889462798833847,0.17519952356815338,0.17989702522754669,0.063530653715133667, -0.030215883627533913,-0.11622516810894012,-0.01291387528181076,-0.16162510216236115,0.062227129936218262,-0.018786976113915443,0.043750312179327011,-0.023249639198184013,0.11545524746179581,0.10889065265655518,-0.029454847797751427,0.12912403047084808,-0.085583880543708801,-0.013991975225508213,0.14510343968868256,0.064951382577419281, 
  /* [13][1][][] */ 0.16953794658184052,-0.091520003974437714,0.12511307001113892,0.13394807279109955,-0.059259038418531418,0.15523239970207214,0.14233605563640594,0.036896780133247375,-0.3615589439868927,0.014747966080904007,-0.16491521894931793,-0.091177567839622498,0.11549338698387146,-0.010165219195187092,-0.18675470352172852,0.01363375224173069, 0.029688522219657898,-0.16615727543830872,0.085952624678611755,0.21969668567180634,0.1701204776763916,0.19287317991256714,0.12840603291988373,0.006140001118183136,-0.17701677978038788,0.044748589396476746,-0.058432728052139282,-0.010301731526851654,0.17167370021343231,0.1181490495800972,0.079851783812046051,0.067815646529197693, -0.072443999350070953,0.0025607957504689693,0.030890867114067078,0.13901883363723755,0.10201211273670197,0.038285531103610992,-0.068234845995903015,-0.065099328756332397,0.040775835514068604,-0.064004644751548767,0.090581439435482025,0.049607072025537491,0.093162201344966888,0.0077786734327673912,0.23080025613307953,0.075285337865352631, 
  /* [13][2][][] */ 0.048809919506311417,0.0038017504848539829,0.095697902143001556,-0.13261319696903229,-0.022039398550987244,0.110479936003685,0.02654181607067585,0.013148275204002857,-0.16951869428157806,0.15112675726413727,-0.034424476325511932,0.091549724340438843,-0.20629319548606873,-0.058694601058959961,-0.16467694938182831,0.015924299135804176, 0.0077310041524469852,-0.11995840072631836,0.10324499011039734,0.013873770833015442,0.11161076277494431,0.22183294594287872,-0.011573128402233124,-0.016324067488312721,-0.17841629683971405,0.035568606108427048,0.018379556015133858,0.090231120586395264,0.11015462130308151,0.22223934531211853,-0.10316943377256393,0.069999366998672485, 0.03392564132809639,-0.0887485072016716,0.056289505213499069,0.23939403891563416,0.02749345451593399,-0.027878092601895332,-0.043241769075393677,-0.05089409276843071,0.10790367424488068,-0.060807861387729645,0.016709081828594208,-0.017876250669360161,0.16869795322418213,0.053429741412401199,0.20565123856067657,-0.065246663987636566, 
  /* [14][0][][] */ -0.2427867203950882,-0.18893399834632874,-0.3376973569393158,0.079955711960792542,-0.064708679914474487,-0.092507973313331604,-0.20161017775535583,-0.34407109022140503,0.27743852138519287,0.10378214716911316,-0.091487176716327667,-0.022449014708399773,-0.033149797469377518,-0.30277848243713379,-0.05878642201423645,-0.32527264952659607, -0.063605442643165588,0.0015945208724588156,-0.11951033025979996,0.05931573361158371,0.077116638422012329,-0.063821524381637573,-0.10052770376205444,-0.056007113307714462,-0.08497263491153717,0.038112085312604904,-0.10465579479932785,0.059523634612560272,0.14872847497463226,-0.16450245678424835,0.18396025896072388,-0.23707979917526245, -0.034881994128227234,-0.10767629742622375,-0.094897404313087463,0.049212638288736343,0.10551650077104568,-0.14095449447631836,0.040351338684558868,-0.14120841026306152,-0.014886303804814816,-0.064360231161117554,-0.15113863348960876,0.031352922320365906,0.018325623124837875,-0.070597529411315918,0.19689781963825226,-0.007619144394993782, 
  /* [14][1][][] */ -0.22725316882133484,-0.1848871260881424,-0.1627858579158783,0.10190492868423462,0.025950105860829353,-0.2070164680480957,-0.089080289006233215,-0.1533808559179306,0.31417572498321533,0.028858160600066185,-0.032559711486101151,0.06993391364812851,0.1985350102186203,-0.19448034465312958,0.035394605249166489,-0.25488671660423279, -0.1366252601146698,-0.087500602006912231,-0.14933082461357117,-0.021472107619047165,0.072857290506362915,-0.19876573979854584,0.011263995431363583,-0.19016133248806,-0.0078784506767988205,-0.021314475685358047,-0.092328749597072601,0.11331792175769806,-0.053789444267749786,-0.1581980288028717,0.094754122197628021,-0.20344677567481995, -0.08266342431306839,-0.057596176862716675,0.027472332119941711,0.092212401330471039,0.061641506850719452,-0.025305852293968201,-0.011002593673765659,-0.047618068754673004,-0.036053888499736786,0.044808067381381989,-0.01205336581915617,0.014157400466501713,0.058173399418592453,-0.15889367461204529,0.056341808289289474,-0.092247098684310913, 
  /* [14][2][][] */ -0.030321817845106125,0.050850413739681244,-0.18754401803016663,0.069834746420383453,0.012428905814886093,-0.32807374000549316,-0.12145799398422241,-0.24096007645130157,0.19890466332435608,0.027576139196753502,0.042304489761590958,0.2162453830242157,0.14854514598846436,-0.13569819927215576,-0.069974318146705627,0.0063737710006535053, -0.14148721098899841,-0.040885373950004578,-0.12523593008518219,-0.07095404714345932,-0.088125430047512054,-0.1209561824798584,-0.11800964176654816,-0.16479894518852234,0.031862270087003708,0.062089551240205765,-0.063567072153091431,0.17111347615718842,-0.090852074325084686,-0.085490889847278595,0.030993090942502022,-0.22419159114360809, -0.065178357064723969,-0.026614291593432426,-0.093583457171916962,-0.058293212205171585,0.020033687353134155,-0.032701537013053894,-0.077768906950950623,0.0044516758061945438,-0.18312801420688629,-0.078123889863491058,-0.160758376121521,-0.012703030370175838,-0.027002342045307159,-0.0071693714708089828,0.018400976434350014,-0.056174792349338531, 
  /* [15][0][][] */ 0.10276949405670166,0.10166815668344498,-0.0093806320801377296,-0.1704554557800293,-0.23181414604187012,0.097485721111297607,-0.15697510540485382,-0.14861786365509033,0.099207468330860138,-0.02605084702372551,0.051048010587692261,0.012342768721282482,-0.1735670268535614,-0.13545979559421539,0.11328231543302536,0.00046164169907569885, 0.079426132142543793,-0.10908219963312149,-0.010797507129609585,-0.055604912340641022,-0.028699548915028572,0.10606804490089417,-0.13828626275062561,-0.025128869339823723,-0.020600749179720879,0.0013298051198944449,-0.11578968912363052,-0.11934622377157211,0.081556215882301331,0.14160305261611938,-0.08656580001115799,-0.083147436380386353, 0.04221927747130394,0.033930551260709763,-0.084428727626800537,0.5713883638381958,0.12432797253131866,0.053688131272792816,0.010145892389118671,0.12958323955535889,0.14713016152381897,0.16936603188514709,0.051083028316497803,0.2591920793056488,0.30639046430587769,0.089111186563968658,0.18253672122955322,-0.034684035927057266, 
  /* [15][1][][] */ 0.017061997205018997,-0.01462992001324892,-0.080581784248352051,-0.051698297262191772,-0.10403316468000412,0.043765828013420105,-0.030441844835877419,-0.14298667013645172,0.067533053457736969,-0.027639338746666908,0.051161486655473709,-0.17248408496379852,-0.024971511214971542,-0.031789898872375488,-0.042359113693237305,-0.17392835021018982, -0.12334486842155457,-0.17664253711700439,-0.054316695779561996,-0.19250687956809998,0.089602850377559662,0.17272673547267914,0.039646867662668228,0.0318647101521492,-0.099177718162536621,-0.063819549977779388,-0.061006743460893631,-0.014825602993369102,0.064679279923439026,0.01669817790389061,-0.12457834184169769,-0.15814569592475891, -0.12903305888175964,-0.17808014154434204,0.033016517758369446,0.60308706760406494,0.16296523809432983,0.13223196566104889,-0.06921742856502533,0.1348491758108139,-0.067260921001434326,0.16671164333820343,0.048940423876047134,0.24588179588317871,0.49706915020942688,0.058677658438682556,0.14559367299079895,-0.023862361907958984, 
  /* [15][2][][] */ -0.073170818388462067,-0.054163374006748199,-0.1786189079284668,-0.042741771787405014,-0.035233531147241592,-0.087535910308361053,-0.16976624727249146,-0.046554014086723328,0.16066306829452515,-0.03782026469707489,0.067693307995796204,-0.015428143553435802,-0.2403426319360733,-0.20807693898677826,0.059423878788948059,-0.099337257444858551, -0.034644447267055511,-0.081341087818145752,-0.00098277535289525986,-0.069465599954128265,-0.023784039542078972,0.23895090818405151,-0.033901702612638474,-0.022780027240514755,-0.082169927656650543,-0.0033811544999480247,-0.0583462193608284,-0.00014063242997508496,0.038718294352293015,0.098545633256435394,-0.028212016448378563,0.040319729596376419, -0.069105550646781921,-0.011781616136431694,-0.085353940725326538,0.54592931270599365,0.25275418162345886,0.0093856789171695709,-0.17014804482460022,-0.067606903612613678,0.042248029261827469,0.047702740877866745,0.052104897797107697,0.066879242658615112,0.49036404490470886,0.051578167825937271,0.23844048380851746,-0.10941552370786667, 
  /* [16][0][][] */ 0.024319974705576897,-0.042017586529254913,0.091059386730194092,0.10662179440259933,0.23088228702545166,0.056905120611190796,0.055532041937112808,-0.090489692986011505,0.22136765718460083,0.070527531206607819,-0.037335313856601715,-0.050213314592838287,0.20398785173892975,0.059418950229883194,0.047892428934574127,-0.0026640929281711578, 0.039638113230466843,-0.092937581241130829,0.1069594994187355,-0.086013704538345337,-0.035896088927984238,-0.070049956440925598,0.041315648704767227,-0.12463990598917007,0.0058004744350910187,-0.098730035126209259,-0.20413327217102051,-0.092478014528751373,0.020736880600452423,0.041497834026813507,-0.25799775123596191,0.076243221759796143, 0.046052124351263046,0.13661986589431763,0.16595697402954102,-0.17179179191589355,-0.17328906059265137,0.10688940435647964,0.04397544264793396,0.11769232153892517,-0.092822626233100891,-0.054827377200126648,-0.069766685366630554,-0.16273389756679535,-0.1783253401517868,0.083841137588024139,-0.080692127346992493,0.12083099782466888, 
  /* [16][1][][] */ 0.045265316963195801,-0.1054643914103508,0.0055779274553060532,0.029960114508867264,0.30080392956733704,-0.040675930678844452,0.032209400087594986,-0.11204817146062851,0.16197580099105835,0.00022792238451074809,-0.18029232323169708,0.17124705016613007,0.1757948100566864,0.033311810344457626,0.0255267433822155,0.037374589592218399, -0.10146967321634293,-0.11203955858945847,0.073483303189277649,-0.17419596016407013,-0.045811731368303299,-0.066132970154285431,0.055128440260887146,-0.031795304268598557,-0.12437104433774948,-0.16928991675376892,-0.092612624168395996,-0.06397053599357605,0.011175274848937988,-0.0078493393957614899,-0.18569017946720123,-0.040971647948026657, 0.050527472048997879,0.14993880689144135,-0.051916703581809998,-0.25930270552635193,-0.20823828876018524,0.098363526165485382,0.11058568209409714,0.06132115051150322,-0.048649013042449951,-0.12434621155261993,-0.080577507615089417,-0.016549615189433098,-0.18626201152801514,0.11104431003332138,-0.061841782182455063,0.15498454868793488, 
  /* [16][2][][] */ -0.002992147346958518,-0.12743861973285675,0.12495159357786179,0.040861845016479492,0.26868164539337158,-0.040739856660366058,-0.019395846873521805,-0.015226014889776707,0.22368508577346802,0.12427689135074615,-0.01906396821141243,-0.15199436247348785,0.057456266134977341,-0.085263840854167938,-0.0099981483072042465,0.13058970868587494, -0.039339128881692886,0.0063709625974297523,0.11025911569595337,-0.11986668407917023,-0.084659390151500702,-0.087993063032627106,0.17234300076961517,-0.017658347263932228,-0.14259509742259979,-0.16750597953796387,-0.11130858957767487,-0.079596951603889465,-0.12094566971063614,-0.10784310102462769,-0.17880070209503174,0.049139216542243958, 0.065477661788463593,0.13321490585803986,0.14553764462471008,-0.15758249163627625,-0.18744213879108429,-0.091068580746650696,0.065411001443862915,-0.058949287980794907,0.079096682369709015,0.029371079057455063,-0.016237583011388779,-0.016606464982032776,-0.27575019001960754,0.093430213630199432,-0.13578523695468903,-0.0016739198472350836, 
  /* [17][0][][] */ 0.070577576756477356,0.12222814559936523,0.052708975970745087,-0.33574780821800232,-0.17687694728374481,0.16667851805686951,0.064073123037815094,-0.055868491530418396,0.15442253649234772,0.20495356619358063,0.15074458718299866,0.27552148699760437,-0.34604126214981079,-0.0032138233073055744,-0.041910380125045776,0.24387076497077942, 0.11602041125297546,0.28347048163414001,0.11789438873529434,-0.13302524387836456,-0.31753149628639221,0.31516066193580627,0.10801181197166443,0.20891167223453522,-0.012971190735697746,0.071458794176578522,0.10667973011732101,0.26126962900161743,-0.17222146689891815,0.24642010033130646,-0.088197506964206696,0.065213233232498169, 0.096284136176109314,0.2426467090845108,0.041513171046972275,-0.15109807252883911,-0.090543940663337708,0.20873755216598511,-0.0099736582487821579,0.18237835168838501,-0.094926260411739349,-0.10310138761997223,0.044727783650159836,-0.17972569167613983,-0.059009388089179993,0.034571129828691483,-0.15068912506103516,0.01180174108594656, 
  /* [17][1][][] */ 0.0018341109389439225,0.20959961414337158,0.13537530601024628,-0.044738218188285828,-0.13635419309139252,0.13663995265960693,0.22320646047592163,0.098956815898418427,0.14218010008335114,-0.033372629433870316,0.055625353008508682,-0.093452341854572296,-0.19450128078460693,0.011964353732764721,0.21179004013538361,0.1876119077205658, 0.040998023003339767,0.28085410594940186,0.044442608952522278,0.10256621986627579,-0.14452134072780609,0.12057784199714661,0.036208696663379669,0.14466094970703125,-0.054845146834850311,-0.16676965355873108,-0.031989976763725281,-0.084804549813270569,-0.10154217481613159,0.0824432373046875,0.081132456660270691,0.11875968426465988, 0.18047149479389191,0.16682891547679901,0.13971008360385895,-0.27619963884353638,0.033584233373403549,0.0021946029737591743,0.041125919669866562,0.067472204566001892,-0.0015005863970145583,-0.077814951539039612,-0.042440950870513916,-0.045059975236654282,0.0017763400683179498,-0.063441134989261627,-0.095297373831272125,0.15733650326728821, 
  /* [17][2][][] */ 0.19699656963348389,0.14065146446228027,0.044531282037496567,0.24647462368011475,-0.082643039524555206,0.061438348144292831,0.090620391070842743,0.24765984714031219,0.037421457469463348,-0.29979246854782104,-0.11896006017923355,-0.35938239097595215,0.083273597061634064,0.092680372297763824,0.35463103652000427,0.26276698708534241, 0.055952712893486023,0.074124231934547424,-0.010289739817380905,0.22699433565139771,0.037676312029361725,-0.15231010317802429,0.020987419411540031,0.0022173335310071707,0.090367667376995087,-0.15729320049285889,-0.2183317244052887,-0.14473873376846313,0.032966598868370056,-0.15579140186309814,0.17727254331111908,0.068339452147483826, 0.22840422391891479,0.11948014795780182,0.16407063603401184,-0.1752086877822876,0.17319771647453308,-0.042754020541906357,0.019160246476531029,-0.013819288462400436,0.088791966438293457,-0.018732955679297447,-0.14114865660667419,-0.088942192494869232,0.072844542562961578,-0.0097176618874073029,-0.050251107662916183,0.11542905122041702, 
  /* [18][0][][] */ 0.10054819285869598,0.15933956205844879,-0.15010711550712585,0.12094565480947495,0.21823583543300629,-0.17038790881633759,-0.16581341624259949,-0.053811375051736832,0.2676740288734436,0.041089832782745361,0.028259757906198502,0.10509099811315536,0.020535435527563095,-0.095253825187683105,0.38067993521690369,-0.060124956071376801, 0.0050784344784915447,-0.34023606777191162,0.068477824330329895,-0.33080035448074341,-0.12554673850536346,0.10300750285387039,0.098578318953514099,-0.1077234148979187,0.10927023738622665,0.11249894648790359,-0.04654281958937645,0.00702638179063797,-0.31985440850257874,0.081995278596878052,-0.32186594605445862,-0.041904617100954056, -0.028771005570888519,-0.030379436910152435,-0.038183804601430893,0.42927557229995728,0.24491709470748901,0.06616596132516861,-0.060439702123403549,0.064380958676338196,-0.10892461985349655,0.06519366055727005,0.01577652245759964,-0.071960799396038055,0.32806703448295593,0.17051506042480469,0.050447672605514526,0.017570126801729202, 
  /* [18][1][][] */ 0.030152130872011185,0.0070057148113846779,-0.050742167979478836,0.062416519969701767,-0.029377149417996407,-0.22874827682971954,-0.081440143287181854,-0.082389742136001587,0.1161431148648262,0.12681816518306732,0.052400507032871246,0.13482411205768585,-0.083474352955818176,0.018348075449466705,0.27027973532676697,-0.004982655867934227, -0.008671443909406662,-0.18987107276916504,0.024932010099291801,-0.084300890564918518,-0.17080186307430267,0.050696901977062225,0.035090059041976929,-0.054457556456327438,0.024205358698964119,0.017223773524165154,-0.052429817616939545,-0.025503212586045265,-0.025678861886262894,0.04993748664855957,-0.11970666795969009,-0.036346051841974258, 0.12064637243747711,-0.041482388973236084,-0.0096495999023318291,0.64250671863555908,0.24695228040218353,0.049663539975881577,-0.12080862373113632,0.069483257830142975,-0.10015452653169632,-0.029944675043225288,0.11570070683956146,0.1200442910194397,0.44787928462028503,-0.043235316872596741,0.1691778153181076,-0.076571851968765259, 
  /* [18][2][][] */ -0.038845960050821304,0.12389803677797318,-0.018180515617132187,0.17706473171710968,0.12099878489971161,-0.18171097338199615,-0.095735050737857819,0.057718787342309952,0.02885562926530838,0.055924374610185623,0.17005497217178345,0.041554339230060577,-0.027947891503572464,-0.055861648172140121,0.42506349086761475,-0.038678672164678574, -0.020235966891050339,-0.25787073373794556,-0.030005626380443573,-0.3008919358253479,-0.17188367247581482,0.074758537113666534,-0.0078783081844449043,-0.23862271010875702,0.14331091940402985,0.055968042463064194,-0.25384178757667542,0.13797159492969513,-0.28114455938339233,-0.14382809400558472,-0.27842646837234497,0.020059503614902496, 0.00043437004205770791,0.032623641192913055,0.06128070130944252,0.73710405826568604,0.22241689264774323,-0.016786849126219749,0.043038282543420792,0.090857736766338348,-0.08634069561958313,-0.070927262306213379,0.059225227683782578,0.054719492793083191,0.35892221331596375,-0.024715734645724297,0.21526521444320679,0.066962733864784241, 
  /* [19][0][][] */ -0.12129820138216019,-0.095478832721710205,-0.010450683534145355,-0.068936765193939209,0.18888537585735321,0.059550795704126358,-0.067505583167076111,0.19486592710018158,-0.43193644285202026,0.022381115704774857,-0.030025754123926163,-0.012801916338503361,0.03607453778386116,0.085515104234218597,-0.18459264934062958,-0.026007413864135742, 0.059829622507095337,-0.11055891960859299,0.078802131116390228,-0.13167771697044373,0.046715922653675079,-0.014236120507121086,0.025469750165939331,0.11504606902599335,-0.13795247673988342,0.1363227367401123,0.25480192899703979,0.13259075582027435,0.040289077907800674,-0.061696019023656845,0.080437980592250824,0.050335977226495743, 0.012031807564198971,-0.10308551043272018,0.041053012013435364,-0.066040754318237305,0.020443413406610489,0.054597817361354828,-0.042927835136651993,-0.095180541276931763,0.096551373600959778,-0.1295190155506134,-0.003666797187179327,-0.087779633700847626,-0.16875314712524414,-0.093592517077922821,-0.12667527794837952,0.00085825280984863639, 
  /* [19][1][][] */ -0.051929723471403122,-0.060476414859294891,0.02909880131483078,0.036313850432634354,0.22505806386470795,0.029270760715007782,-0.0054654544219374657,-0.010210721753537655,-0.35258623957633972,0.01244149636477232,0.003637358546257019,0.085894636809825897,-0.028951244428753853,0.099221177399158478,-0.16520106792449951,-0.094223573803901672, 0.027869831770658493,-0.19019825756549835,-0.0012303078547120094,0.066093668341636658,0.020733607932925224,-0.006418346893042326,-0.0051643922924995422,0.19417668879032135,-0.012945380061864853,0.15133126080036163,0.15754574537277222,0.033397413790225983,0.17505861818790436,0.01880684494972229,0.1405085027217865,-0.021040255203843117, 0.11433836072683334,-0.0061826528981328011,-0.030062276870012283,-0.081277512013912201,0.094890221953392029,-0.045298684388399124,-0.03288114070892334,-0.091560684144496918,0.17505645751953125,-0.10611371695995331,0.017065500840544701,-0.11367154866456985,-0.034388702362775803,0.0088545419275760651,0.012356068007647991,0.15413239598274231, 
  /* [19][2][][] */ -0.06501394510269165,-0.055549796670675278,-0.10874074697494507,-0.10604806989431381,0.15122693777084351,0.013330867514014244,-0.090260036289691925,0.07326151430606842,-0.2856467068195343,0.18214023113250732,-0.019069831818342209,0.11990135908126831,-0.12085938453674316,0.064319431781768799,-0.14835056662559509,-0.088034830987453461, -0.0012012134538963437,-0.24328473210334778,-0.016812378540635109,0.067272193729877472,0.10146301984786987,0.012248712591826916,0.043440151959657669,0.19189734756946564,-0.12990027666091919,-0.090503297746181488,0.053261835128068924,-0.054695557802915573,0.051174316555261612,0.07149563729763031,0.12367212027311325,-0.023925598710775375, 0.0090044457465410233,-0.044316157698631287,0.056845847517251968,0.22364448010921478,0.057444896548986435,-0.064908891916275024,0.046691067516803741,-0.038075812160968781,0.26487517356872559,-0.15066911280155182,-0.074187904596328735,-0.084493845701217651,-0.027695916593074799,-0.16716426610946655,-0.026640854775905609,-0.006248103454709053, 
  /* [20][0][][] */ 0.10942342877388,0.09709785133600235,-0.068899862468242645,0.0085913147777318954,0.38613405823707581,0.076931774616241455,-0.22014118731021881,0.094878993928432465,-0.16369412839412689,-0.008340613916516304,-0.0038062280509620905,0.042494885623455048,0.023771351203322411,-0.031477924436330795,-0.27539458870887756,0.03114798478782177, 0.063425816595554352,-0.22658440470695496,0.092810839414596558,-0.026658184826374054,0.070051796734333038,-0.034814372658729553,0.14029707014560699,-0.02204064279794693,0.099787861108779907,0.22264659404754639,0.18347854912281036,0.11534417420625687,-0.081003561615943909,-0.076559334993362427,0.17600275576114655,0.061480134725570679, 0.13455365598201752,0.041067764163017273,0.023225640878081322,0.20978040993213654,-0.20618696510791779,0.083484843373298645,-0.015984212979674339,0.023378476500511169,0.074920110404491425,-0.0078261420130729675,-0.017970660701394081,-0.059993352741003036,-0.0052735982462763786,-0.038501489907503128,-0.13929612934589386,-0.12376657873392105, 
  /* [20][1][][] */ 0.17821496725082397,0.10089799761772156,-0.029451258480548859,-0.14866146445274353,0.37057727575302124,0.12982532382011414,-0.15410870313644409,-0.044570989906787872,-0.11506029963493347,0.10887386649847031,0.13019494712352753,0.17270943522453308,-0.12430159747600555,-5.0633141654543579e-05,-0.04274928942322731,-0.12152692675590515, 0.0177296232432127,-0.20456624031066895,0.070901885628700256,-0.11289241909980774,-0.012991995550692081,-0.10185860097408295,0.19129490852355957,-0.027045190334320068,0.18954919278621674,-0.057480648159980774,0.045314446091651917,0.039924189448356628,0.021733799949288368,-0.080562904477119446,0.025272030383348465,0.19048614799976349, 0.036436233669519424,0.020513897761702538,0.0070166280493140221,0.069788157939910889,-0.18539741635322571,-0.065637461841106415,-0.024652183055877686,0.09130493551492691,0.028649011626839638,-0.11279324442148209,0.012714365497231483,0.01237021666020155,-0.013665411621332169,0.10794240981340408,-0.12924455106258392,-0.028342857956886292, 
  /* [20][2][][] */ 0.12257102131843567,0.15149042010307312,-0.13526208698749542,-0.14251740276813507,0.41076412796974182,-0.026533039286732674,-0.19192960858345032,0.039250094443559647,-0.081017598509788513,0.030210023745894432,-0.0022822751197963953,0.15694431960582733,0.10479661822319031,-0.068620406091213226,-0.11415190249681473,-0.066713370382785797, -0.13717570900917053,-0.30032059550285339,0.16038660705089569,-0.11100029200315475,0.0021138840820640326,-0.021461181342601776,0.13057325780391693,-0.043714888393878937,0.1228267177939415,0.1038426086306572,-0.17729449272155762,0.20254045724868774,0.011699500493705273,-0.058941565454006195,0.069969408214092255,0.047981072217226028, 0.11635966598987579,-0.0098281735554337502,-0.11908204853534698,-0.013752713799476624,-0.20199504494667053,0.061561428010463715,0.018867727369070053,0.10487100481987,-0.075780466198921204,-0.12387771159410477,0.0030546279158443213,-0.0095470752567052841,-0.22731508314609528,-0.041656441986560822,-0.17687344551086426,-0.11590372025966644, 
  /* [21][0][][] */ -0.12873286008834839,0.072138339281082153,-0.17814463376998901,0.21959757804870605,0.16885644197463989,-0.32051143050193787,-0.11827220767736435,-0.18155159056186676,0.23393984138965607,0.02604486420750618,-0.04493376612663269,0.16164189577102661,0.05532146617770195,-0.31602692604064941,0.10059957206249237,-0.14409513771533966, 0.020569922402501106,0.075269170105457306,-0.22975972294807434,0.20142561197280884,0.14447158575057983,-0.18747355043888092,-0.10703089833259583,-0.097287550568580627,-0.069689348340034485,-0.11087188869714737,-0.29610946774482727,0.051955550909042358,0.29977676272392273,-0.15029692649841309,0.015223067253828049,-0.010720531456172466, 0.05467364564538002,0.0079436060041189194,-0.043143089860677719,-0.26651191711425781,-0.079302869737148285,-0.18419931828975677,0.098676033318042755,-0.1206950768828392,-0.18413370847702026,-0.015254171565175056,-0.049368191510438919,-0.023930182680487633,-0.23619048297405243,0.085951864719390869,0.0056530805304646492,0.027249833568930626, 
  /* [21][1][][] */ -0.29547786712646484,-0.17123967409133911,0.042414136230945587,0.12812364101409912,0.15048032999038696,-0.30261904001235962,-0.17062360048294067,-0.33433687686920166,0.33529120683670044,0.16543073952198029,0.056296668946743011,0.12578988075256348,0.11839933693408966,-0.29152348637580872,0.12712277472019196,-0.20034059882164001, -0.13199611008167267,-0.014652812853455544,-0.16357575356960297,0.090591654181480408,0.21422944962978363,-0.22205859422683716,-0.029151158407330513,0.022996710613369942,-0.07198062539100647,-0.033484023064374924,-0.13302025198936462,0.10238946974277496,0.11193551868200302,-0.048337429761886597,-0.043443825095891953,-0.054024830460548401, -0.13575285673141479,-0.051874574273824692,-0.056968897581100464,-0.069972753524780273,-0.1708417683839798,-0.078190244734287262,0.036883413791656494,-0.055967357009649277,-0.053429313004016876,-0.035061843693256378,-0.1719028502702713,-0.0013471095589920878,-0.11453307420015335,-0.030931759625673294,0.027350658550858498,-0.15831467509269714, 
  /* [21][2][][] */ -0.26739940047264099,-0.10359323024749756,-0.039210602641105652,0.14912183582782745,0.0079921949654817581,-0.25783154368400574,-0.10756000131368637,-0.26019680500030518,0.42570659518241882,0.37562185525894165,0.10328003019094467,0.3560161292552948,0.004798094742000103,-0.36571267247200012,0.092908166348934174,-0.26139980554580688, -0.17967028915882111,0.059700582176446915,-0.24264061450958252,-0.010526267811655998,0.2197854220867157,-0.16929431259632111,-0.17466399073600769,-0.088362738490104675,-0.061315923929214478,0.19100543856620789,-0.10242039710283279,0.11683818697929382,0.17404589056968689,-0.13878458738327026,-0.0047256532125174999,0.020997319370508194, -0.087341047823429108,-0.01294468529522419,-0.10332085192203522,-0.080979280173778534,-0.28548580408096313,0.0030579434242099524,-0.12361734360456467,0.13354058563709259,-0.1032928079366684,-0.011791232042014599,-0.21505352854728699,-0.22531265020370483,0.055448181927204132,0.069691747426986694,0.10924172401428223,-0.035739898681640625, 
  /* [22][0][][] */ 0.16246850788593292,0.21154654026031494,0.1999814510345459,0.17858332395553589,-0.075680933892726898,0.10901102423667908,0.068194679915904999,0.20822456479072571,-0.11329597234725952,-0.19954393804073334,0.061809390783309937,-0.33514133095741272,0.059077784419059753,0.032777793705463409,0.016167951747775078,0.14398637413978577, 0.030712401494383812,0.077591806650161743,0.18961641192436218,0.10343458503484726,-0.11637137830257416,0.1175297424197197,0.2101854532957077,0.032569590955972672,0.089622557163238525,0.044781588017940521,-0.00099408603273332119,0.0065775872208178043,-0.019804535433650017,0.14354310929775238,0.13050991296768188,0.096332080662250519, -0.014207377098500729,0.086049698293209076,-0.049071814864873886,0.03129153698682785,0.049815047532320023,0.019467694684863091,-0.080319985747337341,-0.0056305048055946827,0.069428585469722748,0.12975001335144043,0.047202117741107941,0.13774806261062622,0.11997528374195099,-0.03724285215139389,0.064346008002758026,-0.12513776123523712, 
  /* [22][1][][] */ 0.091713860630989075,0.16366878151893616,0.16787923872470856,0.05233452096581459,-0.13308882713317871,0.1397441178560257,0.28380087018013,0.077803939580917358,-0.12486175447702408,-0.11675991863012314,-0.1158120259642601,-0.22702868282794952,0.028650799766182899,0.19681477546691895,0.019867569208145142,0.19938716292381287, 0.027029110118746758,-0.077085264027118683,0.16868843138217926,0.072829432785511017,-0.14356903731822968,0.20011718571186066,0.18666800856590271,0.021777505055069923,-0.067898496985435486,-0.086061321198940277,0.032121457159519196,-0.051524873822927475,-0.054187681525945663,0.11935119330883026,0.089064896106719971,0.15017561614513397, -0.088495761156082153,0.072651118040084839,-0.019650841131806374,-0.017492763698101044,0.16269606351852417,-0.021942978724837303,-0.048048123717308044,0.061754059046506882,0.077649854123592377,-0.032945532351732254,0.011542536318302155,0.090604685246944427,0.099106490612030029,-0.040493372827768326,0.12827910482883453,0.046853847801685333, 
  /* [22][2][][] */ 0.087475642561912537,0.13505317270755768,0.26317742466926575,-0.029871134087443352,-0.11190298199653625,0.17313113808631897,0.2522808313369751,-0.030946278944611549,-0.074859388172626495,0.035144750028848648,-0.10758581012487411,-0.0035771089605987072,-0.051158204674720764,0.077575691044330597,-0.13858307898044586,0.14948180317878723, 0.018557807430624962,-0.0086756590753793716,0.12402854114770889,0.057530183345079422,-0.016648409888148308,0.098992355167865753,0.11046287417411804,0.047611504793167114,-0.0072176293469965458,-0.039925403892993927,-0.054576065391302109,-0.087791398167610168,0.081470996141433716,0.14465908706188202,0.066443443298339844,-0.0085111148655414581, -0.041180301457643509,-0.011048838496208191,-0.041257761418819427,0.0031797755509614944,0.10219240933656693,0.081101372838020325,0.075383000075817108,-0.005286454688757658,0.03460143506526947,0.040546979755163193,0.066019944846630096,0.12615180015563965,0.20873147249221802,0.067666657269001007,0.27755385637283325,-0.044058371335268021, 
  /* [23][0][][] */ 0.052502360194921494,0.27669757604598999,-0.035697497427463531,0.19968591630458832,0.24740926921367645,0.087338149547576904,-0.10291381180286407,-0.043329376727342606,-0.043085865676403046,-0.20077508687973022,-0.029576836153864861,-0.33759382367134094,0.014647441916167736,-0.10487427562475204,0.024900183081626892,0.08600248396396637, -0.0053206630982458591,0.16974648833274841,0.021202845498919487,0.16933254897594452,0.10870446264743805,-0.14418679475784302,0.024665255099534988,0.18490804731845856,-0.045433934777975082,-0.24469724297523499,-0.021333068609237671,-0.12172893434762955,0.10770692676305771,-0.12928225100040436,-0.062713481485843658,0.0093700336292386055, 0.0082590701058506966,0.10122739523649216,0.031889602541923523,-0.0049095726571977139,0.12470458447933197,-0.23475506901741028,-0.042330838739871979,-0.17107555270195007,0.14574490487575531,0.017418382689356804,-0.13032639026641846,-0.19759301841259003,0.05323338508605957,-0.11687551438808441,-0.033625762909650803,-0.014756610617041588, 
  /* [23][1][][] */ -0.045032482594251633,0.079404547810554504,-0.063800007104873657,0.21094688773155212,0.081065230071544647,-0.1355256587266922,-0.099125087261199951,0.061507783830165863,0.14456436038017273,-0.19079473614692688,-0.073737561702728271,-0.057418700307607651,0.11611078679561615,-0.036086734384298325,0.069575704634189606,0.057667631655931473, -0.071501262485980988,0.093851573765277863,-0.075854174792766571,0.10617444664239883,0.10047673434019089,-0.17766813933849335,-0.096960559487342834,-0.083803877234458923,-0.038927998393774033,-0.034663911908864975,-0.070158667862415314,-0.078091301023960114,0.015508581884205341,-0.15847146511077881,-0.032164338976144791,-0.036340441554784775, 0.12212685495615005,-0.01683955080807209,-0.031971476972103119,0.042653944343328476,0.1458856463432312,0.083368204534053802,-0.057830553501844406,-0.12943084537982941,-0.012831326574087143,-0.20843853056430817,-0.088843636214733124,-0.19127364456653595,-0.13277778029441833,-0.099443338811397552,0.05621907114982605,-0.077401936054229736, 
  /* [23][2][][] */ -0.10183332860469818,0.03757273405790329,-0.11772909760475159,0.16704475879669189,0.21478666365146637,-0.20815940201282501,-0.068898066878318787,-0.034366868436336517,0.093075968325138092,-0.0057890820316970348,0.053705133497714996,0.0073073236271739006,0.021053781732916832,-0.21152405440807343,0.0055878045968711376,-0.11736664175987244, -0.06413394957780838,-0.0099796177819371223,-0.090547800064086914,-0.16635473072528839,-0.1515621691942215,-0.16967274248600006,-0.036854509264230728,-0.073924407362937927,-0.10843006521463394,0.019752468913793564,0.021109025925397873,-0.10858089476823807,0.043792404234409332,-0.18187882006168365,-0.12656818330287933,-0.1308203786611557, 0.031292028725147247,0.12244585156440735,0.0052482117898762226,0.023410564288496971,-0.10672573000192642,0.093968994915485382,0.091808795928955078,0.0017379833152517676,-0.12679286301136017,-0.0096190199255943298,0.0065944232046604156,-0.1429581493139267,-0.020790984854102135,-0.073356747627258301,-0.016062101349234581,-0.047610096633434296, 
  /* [24][0][][] */ -0.038070999085903168,-0.063899539411067963,0.14515945315361023,-0.28566077351570129,-0.032397959381341934,0.1656481921672821,-0.084438204765319824,-0.0026555187068879604,0.16994103789329529,0.064028948545455933,-0.023078108206391335,0.088798061013221741,-0.090678088366985321,-0.068206228315830231,0.0059832124970853329,-0.091644540429115295, -0.023467095568776131,0.18623587489128113,-0.07099180668592453,0.18172527849674225,0.20772714912891388,-0.0095958178862929344,-0.037325501441955566,0.11014847457408905,0.079436987638473511,0.054340682923793793,0.13213057816028595,0.1095406711101532,0.013038286007940769,0.074793905019760132,-0.0040943031199276447,-0.10812423378229141, 0.08836248517036438,-0.062398936599493027,-0.067674145102500916,0.42861267924308777,-0.007034029345959425,-0.0809803307056427,-0.001268090563826263,-0.0081674931570887566,0.029205538332462311,0.18711844086647034,0.078491605818271637,0.029572628438472748,0.17021544277667999,-0.016815802082419395,0.04379001259803772,-0.064666710793972015, 
  /* [24][1][][] */ 0.060248821973800659,-0.015621503815054893,-0.035106655210256577,-0.15742737054824829,-0.1465914398431778,0.074934996664524078,-0.032693497836589813,-0.028863418847322464,0.032598614692687988,0.011294383555650711,0.0096116159111261368,0.018638657405972481,-0.24796397984027863,-0.041511300951242447,-0.10740683972835541,-0.10403528809547424, 0.0962337926030159,0.0031385349575430155,-0.19851879775524139,0.015400717034935951,0.21352499723434448,0.096309646964073181,-0.04982062429189682,0.079817831516265869,0.082066409289836884,0.023450314998626709,0.18284094333648682,0.14347618818283081,0.13770817220211029,0.084938354790210724,0.032615303993225098,-0.031921617686748505, -0.17094498872756958,-0.13977041840553284,0.0031552957370877266,0.10672635585069656,-0.15295816957950592,-0.05394107848405838,0.094421707093715668,0.17498311400413513,-0.11319566518068314,0.27368161082267761,0.12427137792110443,0.10548073053359985,0.098171040415763855,-0.033075150102376938,-0.066749967634677887,0.03231467679142952, 
